FANN_FLO_2.1
num_layers=4
learning_rate=0.700000
connection_rate=1.000000
network_type=0
learning_momentum=0.000000
training_algorithm=2
train_error_function=1
train_stop_function=0
cascade_output_change_fraction=0.010000
quickprop_decay=-0.000100
quickprop_mu=1.750000
rprop_increase_factor=1.200000
rprop_decrease_factor=0.500000
rprop_delta_min=0.000000
rprop_delta_max=50.000000
rprop_delta_zero=0.100000
cascade_output_stagnation_epochs=12
cascade_candidate_change_fraction=0.010000
cascade_candidate_stagnation_epochs=12
cascade_max_out_epochs=150
cascade_min_out_epochs=50
cascade_max_cand_epochs=150
cascade_min_cand_epochs=50
cascade_num_candidate_groups=2
bit_fail_limit=3.49999994039535522461e-01
cascade_candidate_limit=1.00000000000000000000e+03
cascade_weight_multiplier=4.00000005960464477539e-01
cascade_activation_functions_count=10
cascade_activation_functions=3 5 7 8 10 11 14 15 16 17 
cascade_activation_steepnesses_count=4
cascade_activation_steepnesses=2.50000000000000000000e-01 5.00000000000000000000e-01 7.50000000000000000000e-01 1.00000000000000000000e+00 
layer_sizes=613 9 7 3 
scale_included=0
neurons (num_inputs, activation_function, activation_steepness)=(0, 0, 0.00000000000000000000e+00) (0, 0, 0.00000000000000000000e+00) (0, 0, 0.00000000000000000000e+00) (0, 0, 0.00000000000000000000e+00) (0, 0, 0.00000000000000000000e+00) (0, 0, 0.00000000000000000000e+00) (0, 0, 0.00000000000000000000e+00) (0, 0, 0.00000000000000000000e+00) (0, 0, 0.00000000000000000000e+00) (0, 0, 0.00000000000000000000e+00) (0, 0, 0.00000000000000000000e+00) (0, 0, 0.00000000000000000000e+00) (0, 0, 0.00000000000000000000e+00) (0, 0, 0.00000000000000000000e+00) (0, 0, 0.00000000000000000000e+00) (0, 0, 0.00000000000000000000e+00) (0, 0, 0.00000000000000000000e+00) (0, 0, 0.00000000000000000000e+00) (0, 0, 0.00000000000000000000e+00) (0, 0, 0.00000000000000000000e+00) (0, 0, 0.00000000000000000000e+00) (0, 0, 0.00000000000000000000e+00) (0, 0, 0.00000000000000000000e+00) (0, 0, 0.00000000000000000000e+00) (0, 0, 0.00000000000000000000e+00) (0, 0, 0.00000000000000000000e+00) (0, 0, 0.00000000000000000000e+00) (0, 0, 0.00000000000000000000e+00) (0, 0, 0.00000000000000000000e+00) (0, 0, 0.00000000000000000000e+00) (0, 0, 0.00000000000000000000e+00) (0, 0, 0.00000000000000000000e+00) (0, 0, 0.00000000000000000000e+00) (0, 0, 0.00000000000000000000e+00) (0, 0, 0.00000000000000000000e+00) (0, 0, 0.00000000000000000000e+00) (0, 0, 0.00000000000000000000e+00) (0, 0, 0.00000000000000000000e+00) (0, 0, 0.00000000000000000000e+00) (0, 0, 0.00000000000000000000e+00) (0, 0, 0.00000000000000000000e+00) (0, 0, 0.00000000000000000000e+00) (0, 0, 0.00000000000000000000e+00) (0, 0, 0.00000000000000000000e+00) (0, 0, 0.00000000000000000000e+00) (0, 0, 0.00000000000000000000e+00) (0, 0, 0.00000000000000000000e+00) (0, 0, 0.00000000000000000000e+00) (0, 0, 0.00000000000000000000e+00) (0, 0, 0.00000000000000000000e+00) (0, 0, 0.00000000000000000000e+00) (0, 0, 0.00000000000000000000e+00) (0, 0, 0.00000000000000000000e+00) (0, 0, 0.00000000000000000000e+00) (0, 0, 0.00000000000000000000e+00) (0, 0, 0.00000000000000000000e+00) (0, 0, 0.00000000000000000000e+00) (0, 0, 0.00000000000000000000e+00) (0, 0, 0.00000000000000000000e+00) (0, 0, 0.00000000000000000000e+00) (0, 0, 0.00000000000000000000e+00) (0, 0, 0.00000000000000000000e+00) (0, 0, 0.00000000000000000000e+00) (0, 0, 0.00000000000000000000e+00) (0, 0, 0.00000000000000000000e+00) (0, 0, 0.00000000000000000000e+00) (0, 0, 0.00000000000000000000e+00) (0, 0, 0.00000000000000000000e+00) (0, 0, 0.00000000000000000000e+00) (0, 0, 0.00000000000000000000e+00) (0, 0, 0.00000000000000000000e+00) (0, 0, 0.00000000000000000000e+00) (0, 0, 0.00000000000000000000e+00) (0, 0, 0.00000000000000000000e+00) (0, 0, 0.00000000000000000000e+00) (0, 0, 0.00000000000000000000e+00) (0, 0, 0.00000000000000000000e+00) (0, 0, 0.00000000000000000000e+00) (0, 0, 0.00000000000000000000e+00) (0, 0, 0.00000000000000000000e+00) (0, 0, 0.00000000000000000000e+00) (0, 0, 0.00000000000000000000e+00) (0, 0, 0.00000000000000000000e+00) (0, 0, 0.00000000000000000000e+00) (0, 0, 0.00000000000000000000e+00) (0, 0, 0.00000000000000000000e+00) (0, 0, 0.00000000000000000000e+00) (0, 0, 0.00000000000000000000e+00) (0, 0, 0.00000000000000000000e+00) (0, 0, 0.00000000000000000000e+00) (0, 0, 0.00000000000000000000e+00) (0, 0, 0.00000000000000000000e+00) (0, 0, 0.00000000000000000000e+00) (0, 0, 0.00000000000000000000e+00) (0, 0, 0.00000000000000000000e+00) (0, 0, 0.00000000000000000000e+00) (0, 0, 0.00000000000000000000e+00) (0, 0, 0.00000000000000000000e+00) (0, 0, 0.00000000000000000000e+00) (0, 0, 0.00000000000000000000e+00) (0, 0, 0.00000000000000000000e+00) (0, 0, 0.00000000000000000000e+00) (0, 0, 0.00000000000000000000e+00) (0, 0, 0.00000000000000000000e+00) (0, 0, 0.00000000000000000000e+00) (0, 0, 0.00000000000000000000e+00) (0, 0, 0.00000000000000000000e+00) (0, 0, 0.00000000000000000000e+00) (0, 0, 0.00000000000000000000e+00) (0, 0, 0.00000000000000000000e+00) (0, 0, 0.00000000000000000000e+00) (0, 0, 0.00000000000000000000e+00) (0, 0, 0.00000000000000000000e+00) (0, 0, 0.00000000000000000000e+00) (0, 0, 0.00000000000000000000e+00) (0, 0, 0.00000000000000000000e+00) (0, 0, 0.00000000000000000000e+00) (0, 0, 0.00000000000000000000e+00) (0, 0, 0.00000000000000000000e+00) (0, 0, 0.00000000000000000000e+00) (0, 0, 0.00000000000000000000e+00) (0, 0, 0.00000000000000000000e+00) (0, 0, 0.00000000000000000000e+00) (0, 0, 0.00000000000000000000e+00) (0, 0, 0.00000000000000000000e+00) (0, 0, 0.00000000000000000000e+00) (0, 0, 0.00000000000000000000e+00) (0, 0, 0.00000000000000000000e+00) (0, 0, 0.00000000000000000000e+00) (0, 0, 0.00000000000000000000e+00) (0, 0, 0.00000000000000000000e+00) (0, 0, 0.00000000000000000000e+00) (0, 0, 0.00000000000000000000e+00) (0, 0, 0.00000000000000000000e+00) (0, 0, 0.00000000000000000000e+00) (0, 0, 0.00000000000000000000e+00) (0, 0, 0.00000000000000000000e+00) (0, 0, 0.00000000000000000000e+00) (0, 0, 0.00000000000000000000e+00) (0, 0, 0.00000000000000000000e+00) (0, 0, 0.00000000000000000000e+00) (0, 0, 0.00000000000000000000e+00) (0, 0, 0.00000000000000000000e+00) (0, 0, 0.00000000000000000000e+00) (0, 0, 0.00000000000000000000e+00) (0, 0, 0.00000000000000000000e+00) (0, 0, 0.00000000000000000000e+00) (0, 0, 0.00000000000000000000e+00) (0, 0, 0.00000000000000000000e+00) (0, 0, 0.00000000000000000000e+00) (0, 0, 0.00000000000000000000e+00) (0, 0, 0.00000000000000000000e+00) (0, 0, 0.00000000000000000000e+00) (0, 0, 0.00000000000000000000e+00) (0, 0, 0.00000000000000000000e+00) (0, 0, 0.00000000000000000000e+00) (0, 0, 0.00000000000000000000e+00) (0, 0, 0.00000000000000000000e+00) (0, 0, 0.00000000000000000000e+00) (0, 0, 0.00000000000000000000e+00) (0, 0, 0.00000000000000000000e+00) (0, 0, 0.00000000000000000000e+00) (0, 0, 0.00000000000000000000e+00) (0, 0, 0.00000000000000000000e+00) (0, 0, 0.00000000000000000000e+00) (0, 0, 0.00000000000000000000e+00) (0, 0, 0.00000000000000000000e+00) (0, 0, 0.00000000000000000000e+00) (0, 0, 0.00000000000000000000e+00) (0, 0, 0.00000000000000000000e+00) (0, 0, 0.00000000000000000000e+00) (0, 0, 0.00000000000000000000e+00) (0, 0, 0.00000000000000000000e+00) (0, 0, 0.00000000000000000000e+00) (0, 0, 0.00000000000000000000e+00) (0, 0, 0.00000000000000000000e+00) (0, 0, 0.00000000000000000000e+00) (0, 0, 0.00000000000000000000e+00) (0, 0, 0.00000000000000000000e+00) (0, 0, 0.00000000000000000000e+00) (0, 0, 0.00000000000000000000e+00) (0, 0, 0.00000000000000000000e+00) (0, 0, 0.00000000000000000000e+00) (0, 0, 0.00000000000000000000e+00) (0, 0, 0.00000000000000000000e+00) (0, 0, 0.00000000000000000000e+00) (0, 0, 0.00000000000000000000e+00) (0, 0, 0.00000000000000000000e+00) (0, 0, 0.00000000000000000000e+00) (0, 0, 0.00000000000000000000e+00) (0, 0, 0.00000000000000000000e+00) (0, 0, 0.00000000000000000000e+00) (0, 0, 0.00000000000000000000e+00) (0, 0, 0.00000000000000000000e+00) (0, 0, 0.00000000000000000000e+00) (0, 0, 0.00000000000000000000e+00) (0, 0, 0.00000000000000000000e+00) (0, 0, 0.00000000000000000000e+00) (0, 0, 0.00000000000000000000e+00) (0, 0, 0.00000000000000000000e+00) (0, 0, 0.00000000000000000000e+00) (0, 0, 0.00000000000000000000e+00) (0, 0, 0.00000000000000000000e+00) (0, 0, 0.00000000000000000000e+00) (0, 0, 0.00000000000000000000e+00) (0, 0, 0.00000000000000000000e+00) (0, 0, 0.00000000000000000000e+00) (0, 0, 0.00000000000000000000e+00) (0, 0, 0.00000000000000000000e+00) (0, 0, 0.00000000000000000000e+00) (0, 0, 0.00000000000000000000e+00) (0, 0, 0.00000000000000000000e+00) (0, 0, 0.00000000000000000000e+00) (0, 0, 0.00000000000000000000e+00) (0, 0, 0.00000000000000000000e+00) (0, 0, 0.00000000000000000000e+00) (0, 0, 0.00000000000000000000e+00) (0, 0, 0.00000000000000000000e+00) (0, 0, 0.00000000000000000000e+00) (0, 0, 0.00000000000000000000e+00) (0, 0, 0.00000000000000000000e+00) (0, 0, 0.00000000000000000000e+00) (0, 0, 0.00000000000000000000e+00) (0, 0, 0.00000000000000000000e+00) (0, 0, 0.00000000000000000000e+00) (0, 0, 0.00000000000000000000e+00) (0, 0, 0.00000000000000000000e+00) (0, 0, 0.00000000000000000000e+00) (0, 0, 0.00000000000000000000e+00) (0, 0, 0.00000000000000000000e+00) (0, 0, 0.00000000000000000000e+00) (0, 0, 0.00000000000000000000e+00) (0, 0, 0.00000000000000000000e+00) (0, 0, 0.00000000000000000000e+00) (0, 0, 0.00000000000000000000e+00) (0, 0, 0.00000000000000000000e+00) (0, 0, 0.00000000000000000000e+00) (0, 0, 0.00000000000000000000e+00) (0, 0, 0.00000000000000000000e+00) (0, 0, 0.00000000000000000000e+00) (0, 0, 0.00000000000000000000e+00) (0, 0, 0.00000000000000000000e+00) (0, 0, 0.00000000000000000000e+00) (0, 0, 0.00000000000000000000e+00) (0, 0, 0.00000000000000000000e+00) (0, 0, 0.00000000000000000000e+00) (0, 0, 0.00000000000000000000e+00) (0, 0, 0.00000000000000000000e+00) (0, 0, 0.00000000000000000000e+00) (0, 0, 0.00000000000000000000e+00) (0, 0, 0.00000000000000000000e+00) (0, 0, 0.00000000000000000000e+00) (0, 0, 0.00000000000000000000e+00) (0, 0, 0.00000000000000000000e+00) (0, 0, 0.00000000000000000000e+00) (0, 0, 0.00000000000000000000e+00) (0, 0, 0.00000000000000000000e+00) (0, 0, 0.00000000000000000000e+00) (0, 0, 0.00000000000000000000e+00) (0, 0, 0.00000000000000000000e+00) (0, 0, 0.00000000000000000000e+00) (0, 0, 0.00000000000000000000e+00) (0, 0, 0.00000000000000000000e+00) (0, 0, 0.00000000000000000000e+00) (0, 0, 0.00000000000000000000e+00) (0, 0, 0.00000000000000000000e+00) (0, 0, 0.00000000000000000000e+00) (0, 0, 0.00000000000000000000e+00) (0, 0, 0.00000000000000000000e+00) (0, 0, 0.00000000000000000000e+00) (0, 0, 0.00000000000000000000e+00) (0, 0, 0.00000000000000000000e+00) (0, 0, 0.00000000000000000000e+00) (0, 0, 0.00000000000000000000e+00) (0, 0, 0.00000000000000000000e+00) (0, 0, 0.00000000000000000000e+00) (0, 0, 0.00000000000000000000e+00) (0, 0, 0.00000000000000000000e+00) (0, 0, 0.00000000000000000000e+00) (0, 0, 0.00000000000000000000e+00) (0, 0, 0.00000000000000000000e+00) (0, 0, 0.00000000000000000000e+00) (0, 0, 0.00000000000000000000e+00) (0, 0, 0.00000000000000000000e+00) (0, 0, 0.00000000000000000000e+00) (0, 0, 0.00000000000000000000e+00) (0, 0, 0.00000000000000000000e+00) (0, 0, 0.00000000000000000000e+00) (0, 0, 0.00000000000000000000e+00) (0, 0, 0.00000000000000000000e+00) (0, 0, 0.00000000000000000000e+00) (0, 0, 0.00000000000000000000e+00) (0, 0, 0.00000000000000000000e+00) (0, 0, 0.00000000000000000000e+00) (0, 0, 0.00000000000000000000e+00) (0, 0, 0.00000000000000000000e+00) (0, 0, 0.00000000000000000000e+00) (0, 0, 0.00000000000000000000e+00) (0, 0, 0.00000000000000000000e+00) (0, 0, 0.00000000000000000000e+00) (0, 0, 0.00000000000000000000e+00) (0, 0, 0.00000000000000000000e+00) (0, 0, 0.00000000000000000000e+00) (0, 0, 0.00000000000000000000e+00) (0, 0, 0.00000000000000000000e+00) (0, 0, 0.00000000000000000000e+00) (0, 0, 0.00000000000000000000e+00) (0, 0, 0.00000000000000000000e+00) (0, 0, 0.00000000000000000000e+00) (0, 0, 0.00000000000000000000e+00) (0, 0, 0.00000000000000000000e+00) (0, 0, 0.00000000000000000000e+00) (0, 0, 0.00000000000000000000e+00) (0, 0, 0.00000000000000000000e+00) (0, 0, 0.00000000000000000000e+00) (0, 0, 0.00000000000000000000e+00) (0, 0, 0.00000000000000000000e+00) (0, 0, 0.00000000000000000000e+00) (0, 0, 0.00000000000000000000e+00) (0, 0, 0.00000000000000000000e+00) (0, 0, 0.00000000000000000000e+00) (0, 0, 0.00000000000000000000e+00) (0, 0, 0.00000000000000000000e+00) (0, 0, 0.00000000000000000000e+00) (0, 0, 0.00000000000000000000e+00) (0, 0, 0.00000000000000000000e+00) (0, 0, 0.00000000000000000000e+00) (0, 0, 0.00000000000000000000e+00) (0, 0, 0.00000000000000000000e+00) (0, 0, 0.00000000000000000000e+00) (0, 0, 0.00000000000000000000e+00) (0, 0, 0.00000000000000000000e+00) (0, 0, 0.00000000000000000000e+00) (0, 0, 0.00000000000000000000e+00) (0, 0, 0.00000000000000000000e+00) (0, 0, 0.00000000000000000000e+00) (0, 0, 0.00000000000000000000e+00) (0, 0, 0.00000000000000000000e+00) (0, 0, 0.00000000000000000000e+00) (0, 0, 0.00000000000000000000e+00) (0, 0, 0.00000000000000000000e+00) (0, 0, 0.00000000000000000000e+00) (0, 0, 0.00000000000000000000e+00) (0, 0, 0.00000000000000000000e+00) (0, 0, 0.00000000000000000000e+00) (0, 0, 0.00000000000000000000e+00) (0, 0, 0.00000000000000000000e+00) (0, 0, 0.00000000000000000000e+00) (0, 0, 0.00000000000000000000e+00) (0, 0, 0.00000000000000000000e+00) (0, 0, 0.00000000000000000000e+00) (0, 0, 0.00000000000000000000e+00) (0, 0, 0.00000000000000000000e+00) (0, 0, 0.00000000000000000000e+00) (0, 0, 0.00000000000000000000e+00) (0, 0, 0.00000000000000000000e+00) (0, 0, 0.00000000000000000000e+00) (0, 0, 0.00000000000000000000e+00) (0, 0, 0.00000000000000000000e+00) (0, 0, 0.00000000000000000000e+00) (0, 0, 0.00000000000000000000e+00) (0, 0, 0.00000000000000000000e+00) (0, 0, 0.00000000000000000000e+00) (0, 0, 0.00000000000000000000e+00) (0, 0, 0.00000000000000000000e+00) (0, 0, 0.00000000000000000000e+00) (0, 0, 0.00000000000000000000e+00) (0, 0, 0.00000000000000000000e+00) (0, 0, 0.00000000000000000000e+00) (0, 0, 0.00000000000000000000e+00) (0, 0, 0.00000000000000000000e+00) (0, 0, 0.00000000000000000000e+00) (0, 0, 0.00000000000000000000e+00) (0, 0, 0.00000000000000000000e+00) (0, 0, 0.00000000000000000000e+00) (0, 0, 0.00000000000000000000e+00) (0, 0, 0.00000000000000000000e+00) (0, 0, 0.00000000000000000000e+00) (0, 0, 0.00000000000000000000e+00) (0, 0, 0.00000000000000000000e+00) (0, 0, 0.00000000000000000000e+00) (0, 0, 0.00000000000000000000e+00) (0, 0, 0.00000000000000000000e+00) (0, 0, 0.00000000000000000000e+00) (0, 0, 0.00000000000000000000e+00) (0, 0, 0.00000000000000000000e+00) (0, 0, 0.00000000000000000000e+00) (0, 0, 0.00000000000000000000e+00) (0, 0, 0.00000000000000000000e+00) (0, 0, 0.00000000000000000000e+00) (0, 0, 0.00000000000000000000e+00) (0, 0, 0.00000000000000000000e+00) (0, 0, 0.00000000000000000000e+00) (0, 0, 0.00000000000000000000e+00) (0, 0, 0.00000000000000000000e+00) (0, 0, 0.00000000000000000000e+00) (0, 0, 0.00000000000000000000e+00) (0, 0, 0.00000000000000000000e+00) (0, 0, 0.00000000000000000000e+00) (0, 0, 0.00000000000000000000e+00) (0, 0, 0.00000000000000000000e+00) (0, 0, 0.00000000000000000000e+00) (0, 0, 0.00000000000000000000e+00) (0, 0, 0.00000000000000000000e+00) (0, 0, 0.00000000000000000000e+00) (0, 0, 0.00000000000000000000e+00) (0, 0, 0.00000000000000000000e+00) (0, 0, 0.00000000000000000000e+00) (0, 0, 0.00000000000000000000e+00) (0, 0, 0.00000000000000000000e+00) (0, 0, 0.00000000000000000000e+00) (0, 0, 0.00000000000000000000e+00) (0, 0, 0.00000000000000000000e+00) (0, 0, 0.00000000000000000000e+00) (0, 0, 0.00000000000000000000e+00) (0, 0, 0.00000000000000000000e+00) (0, 0, 0.00000000000000000000e+00) (0, 0, 0.00000000000000000000e+00) (0, 0, 0.00000000000000000000e+00) (0, 0, 0.00000000000000000000e+00) (0, 0, 0.00000000000000000000e+00) (0, 0, 0.00000000000000000000e+00) (0, 0, 0.00000000000000000000e+00) (0, 0, 0.00000000000000000000e+00) (0, 0, 0.00000000000000000000e+00) (0, 0, 0.00000000000000000000e+00) (0, 0, 0.00000000000000000000e+00) (0, 0, 0.00000000000000000000e+00) (0, 0, 0.00000000000000000000e+00) (0, 0, 0.00000000000000000000e+00) (0, 0, 0.00000000000000000000e+00) (0, 0, 0.00000000000000000000e+00) (0, 0, 0.00000000000000000000e+00) (0, 0, 0.00000000000000000000e+00) (0, 0, 0.00000000000000000000e+00) (0, 0, 0.00000000000000000000e+00) (0, 0, 0.00000000000000000000e+00) (0, 0, 0.00000000000000000000e+00) (0, 0, 0.00000000000000000000e+00) (0, 0, 0.00000000000000000000e+00) (0, 0, 0.00000000000000000000e+00) (0, 0, 0.00000000000000000000e+00) (0, 0, 0.00000000000000000000e+00) (0, 0, 0.00000000000000000000e+00) (0, 0, 0.00000000000000000000e+00) (0, 0, 0.00000000000000000000e+00) (0, 0, 0.00000000000000000000e+00) (0, 0, 0.00000000000000000000e+00) (0, 0, 0.00000000000000000000e+00) (0, 0, 0.00000000000000000000e+00) (0, 0, 0.00000000000000000000e+00) (0, 0, 0.00000000000000000000e+00) (0, 0, 0.00000000000000000000e+00) (0, 0, 0.00000000000000000000e+00) (0, 0, 0.00000000000000000000e+00) (0, 0, 0.00000000000000000000e+00) (0, 0, 0.00000000000000000000e+00) (0, 0, 0.00000000000000000000e+00) (0, 0, 0.00000000000000000000e+00) (0, 0, 0.00000000000000000000e+00) (0, 0, 0.00000000000000000000e+00) (0, 0, 0.00000000000000000000e+00) (0, 0, 0.00000000000000000000e+00) (0, 0, 0.00000000000000000000e+00) (0, 0, 0.00000000000000000000e+00) (0, 0, 0.00000000000000000000e+00) (0, 0, 0.00000000000000000000e+00) (0, 0, 0.00000000000000000000e+00) (0, 0, 0.00000000000000000000e+00) (0, 0, 0.00000000000000000000e+00) (0, 0, 0.00000000000000000000e+00) (0, 0, 0.00000000000000000000e+00) (0, 0, 0.00000000000000000000e+00) (0, 0, 0.00000000000000000000e+00) (0, 0, 0.00000000000000000000e+00) (0, 0, 0.00000000000000000000e+00) (0, 0, 0.00000000000000000000e+00) (0, 0, 0.00000000000000000000e+00) (0, 0, 0.00000000000000000000e+00) (0, 0, 0.00000000000000000000e+00) (0, 0, 0.00000000000000000000e+00) (0, 0, 0.00000000000000000000e+00) (0, 0, 0.00000000000000000000e+00) (0, 0, 0.00000000000000000000e+00) (0, 0, 0.00000000000000000000e+00) (0, 0, 0.00000000000000000000e+00) (0, 0, 0.00000000000000000000e+00) (0, 0, 0.00000000000000000000e+00) (0, 0, 0.00000000000000000000e+00) (0, 0, 0.00000000000000000000e+00) (0, 0, 0.00000000000000000000e+00) (0, 0, 0.00000000000000000000e+00) (0, 0, 0.00000000000000000000e+00) (0, 0, 0.00000000000000000000e+00) (0, 0, 0.00000000000000000000e+00) (0, 0, 0.00000000000000000000e+00) (0, 0, 0.00000000000000000000e+00) (0, 0, 0.00000000000000000000e+00) (0, 0, 0.00000000000000000000e+00) (0, 0, 0.00000000000000000000e+00) (0, 0, 0.00000000000000000000e+00) (0, 0, 0.00000000000000000000e+00) (0, 0, 0.00000000000000000000e+00) (0, 0, 0.00000000000000000000e+00) (0, 0, 0.00000000000000000000e+00) (0, 0, 0.00000000000000000000e+00) (0, 0, 0.00000000000000000000e+00) (0, 0, 0.00000000000000000000e+00) (0, 0, 0.00000000000000000000e+00) (0, 0, 0.00000000000000000000e+00) (0, 0, 0.00000000000000000000e+00) (0, 0, 0.00000000000000000000e+00) (0, 0, 0.00000000000000000000e+00) (0, 0, 0.00000000000000000000e+00) (0, 0, 0.00000000000000000000e+00) (0, 0, 0.00000000000000000000e+00) (0, 0, 0.00000000000000000000e+00) (0, 0, 0.00000000000000000000e+00) (0, 0, 0.00000000000000000000e+00) (0, 0, 0.00000000000000000000e+00) (0, 0, 0.00000000000000000000e+00) (0, 0, 0.00000000000000000000e+00) (0, 0, 0.00000000000000000000e+00) (0, 0, 0.00000000000000000000e+00) (0, 0, 0.00000000000000000000e+00) (0, 0, 0.00000000000000000000e+00) (0, 0, 0.00000000000000000000e+00) (0, 0, 0.00000000000000000000e+00) (0, 0, 0.00000000000000000000e+00) (0, 0, 0.00000000000000000000e+00) (0, 0, 0.00000000000000000000e+00) (0, 0, 0.00000000000000000000e+00) (0, 0, 0.00000000000000000000e+00) (0, 0, 0.00000000000000000000e+00) (0, 0, 0.00000000000000000000e+00) (0, 0, 0.00000000000000000000e+00) (0, 0, 0.00000000000000000000e+00) (0, 0, 0.00000000000000000000e+00) (0, 0, 0.00000000000000000000e+00) (0, 0, 0.00000000000000000000e+00) (0, 0, 0.00000000000000000000e+00) (0, 0, 0.00000000000000000000e+00) (0, 0, 0.00000000000000000000e+00) (0, 0, 0.00000000000000000000e+00) (0, 0, 0.00000000000000000000e+00) (0, 0, 0.00000000000000000000e+00) (0, 0, 0.00000000000000000000e+00) (0, 0, 0.00000000000000000000e+00) (0, 0, 0.00000000000000000000e+00) (0, 0, 0.00000000000000000000e+00) (0, 0, 0.00000000000000000000e+00) (0, 0, 0.00000000000000000000e+00) (0, 0, 0.00000000000000000000e+00) (0, 0, 0.00000000000000000000e+00) (0, 0, 0.00000000000000000000e+00) (0, 0, 0.00000000000000000000e+00) (0, 0, 0.00000000000000000000e+00) (0, 0, 0.00000000000000000000e+00) (0, 0, 0.00000000000000000000e+00) (0, 0, 0.00000000000000000000e+00) (0, 0, 0.00000000000000000000e+00) (0, 0, 0.00000000000000000000e+00) (0, 0, 0.00000000000000000000e+00) (0, 0, 0.00000000000000000000e+00) (0, 0, 0.00000000000000000000e+00) (0, 0, 0.00000000000000000000e+00) (0, 0, 0.00000000000000000000e+00) (0, 0, 0.00000000000000000000e+00) (0, 0, 0.00000000000000000000e+00) (0, 0, 0.00000000000000000000e+00) (0, 0, 0.00000000000000000000e+00) (0, 0, 0.00000000000000000000e+00) (0, 0, 0.00000000000000000000e+00) (0, 0, 0.00000000000000000000e+00) (0, 0, 0.00000000000000000000e+00) (0, 0, 0.00000000000000000000e+00) (0, 0, 0.00000000000000000000e+00) (0, 0, 0.00000000000000000000e+00) (0, 0, 0.00000000000000000000e+00) (0, 0, 0.00000000000000000000e+00) (0, 0, 0.00000000000000000000e+00) (0, 0, 0.00000000000000000000e+00) (0, 0, 0.00000000000000000000e+00) (0, 0, 0.00000000000000000000e+00) (0, 0, 0.00000000000000000000e+00) (0, 0, 0.00000000000000000000e+00) (0, 0, 0.00000000000000000000e+00) (0, 0, 0.00000000000000000000e+00) (0, 0, 0.00000000000000000000e+00) (0, 0, 0.00000000000000000000e+00) (0, 0, 0.00000000000000000000e+00) (0, 0, 0.00000000000000000000e+00) (0, 0, 0.00000000000000000000e+00) (0, 0, 0.00000000000000000000e+00) (0, 0, 0.00000000000000000000e+00) (0, 0, 0.00000000000000000000e+00) (0, 0, 0.00000000000000000000e+00) (0, 0, 0.00000000000000000000e+00) (0, 0, 0.00000000000000000000e+00) (0, 0, 0.00000000000000000000e+00) (0, 0, 0.00000000000000000000e+00) (0, 0, 0.00000000000000000000e+00) (0, 0, 0.00000000000000000000e+00) (0, 0, 0.00000000000000000000e+00) (0, 0, 0.00000000000000000000e+00) (0, 0, 0.00000000000000000000e+00) (0, 0, 0.00000000000000000000e+00) (0, 0, 0.00000000000000000000e+00) (0, 0, 0.00000000000000000000e+00) (0, 0, 0.00000000000000000000e+00) (0, 0, 0.00000000000000000000e+00) (0, 0, 0.00000000000000000000e+00) (0, 0, 0.00000000000000000000e+00) (613, 5, 5.00000000000000000000e-01) (613, 5, 5.00000000000000000000e-01) (613, 5, 5.00000000000000000000e-01) (613, 5, 5.00000000000000000000e-01) (613, 5, 5.00000000000000000000e-01) (613, 5, 5.00000000000000000000e-01) (613, 5, 5.00000000000000000000e-01) (613, 5, 5.00000000000000000000e-01) (0, 5, 0.00000000000000000000e+00) (9, 5, 5.00000000000000000000e-01) (9, 5, 5.00000000000000000000e-01) (9, 5, 5.00000000000000000000e-01) (9, 5, 5.00000000000000000000e-01) (9, 5, 5.00000000000000000000e-01) (9, 5, 5.00000000000000000000e-01) (0, 5, 0.00000000000000000000e+00) (7, 5, 5.00000000000000000000e-01) (7, 5, 5.00000000000000000000e-01) (0, 5, 0.00000000000000000000e+00) 
connections (connected_to_neuron, weight)=(0, 3.76288324594497680664e-01) (1, -1.50721922516822814941e-01) (2, -1.68890669941902160645e-01) (3, -2.16429740190505981445e-01) (4, 3.76129858195781707764e-02) (5, 6.22383914887905120850e-02) (6, 3.42002481222152709961e-01) (7, 2.41108462214469909668e-01) (8, -6.03704899549484252930e-03) (9, 1.23443037271499633789e-01) (10, -1.15636324882507324219e+00) (11, 3.33310216665267944336e-02) (12, 2.58269190788269042969e-01) (13, 2.94418036937713623047e-01) (14, 2.02717661857604980469e-01) (15, 1.60283282399177551270e-01) (16, 1.55503049492835998535e-01) (17, 1.57544370740652084351e-02) (18, 1.57895296812057495117e-01) (19, 3.78625392913818359375e-02) (20, 2.26481959223747253418e-01) (21, -1.03939637541770935059e-01) (22, 6.44667029380798339844e-01) (23, 6.71180844306945800781e-01) (24, 2.90695667266845703125e-01) (25, -2.53364369273185729980e-02) (26, -1.31211340427398681641e-01) (27, -1.36990055441856384277e-01) (28, 3.88425797224044799805e-01) (29, 5.82948505878448486328e-01) (30, -5.20190715789794921875e-01) (31, -5.08767843246459960938e-01) (32, -1.49968013167381286621e-01) (33, -1.37614980340003967285e-01) (34, -6.26683756709098815918e-02) (35, -4.51653935015201568604e-02) (36, -3.00067849457263946533e-02) (37, 1.69520652294158935547e+00) (38, 1.38847410678863525391e-01) (39, 2.73019343614578247070e-01) (40, -3.36826205253601074219e-01) (41, -3.09059053659439086914e-01) (42, 4.10084985196590423584e-02) (43, -5.05120642483234405518e-02) (44, -7.36188814043998718262e-02) (45, 2.72075999528169631958e-02) (46, -4.82702255249023437500e-01) (47, 9.62927579879760742188e-01) (48, -3.01749240607023239136e-02) (49, 1.30587592720985412598e-01) (50, -1.03052765130996704102e-01) (51, 7.36060217022895812988e-02) (52, -3.65062332153320312500e+00) (53, -1.26158869266510009766e+00) (54, 1.22199140489101409912e-01) (55, 1.54685467481613159180e-01) (56, -1.82091653347015380859e-01) (57, -2.40058880299329757690e-02) (58, 7.76627838611602783203e-01) (59, 6.15222334861755371094e-01) (60, -5.49928843975067138672e-01) (61, 6.12564146518707275391e-01) (62, -1.08159184455871582031e+00) (63, -7.85701256245374679565e-03) (64, -3.89889687299728393555e-01) (65, -1.03908911347389221191e-01) (66, -2.24609553813934326172e-01) (67, -7.63639211654663085938e-01) (68, 2.30680376291275024414e-01) (69, 6.42689093947410583496e-02) (70, -8.69020894169807434082e-02) (71, 1.52891501784324645996e-02) (72, 7.50754535198211669922e-01) (73, 3.85870456695556640625e-01) (74, -2.30732262134552001953e-01) (75, 1.32908269762992858887e-01) (76, -3.83621752262115478516e-01) (77, -8.07520300149917602539e-02) (78, -6.01438343524932861328e-01) (79, -1.98811933398246765137e-01) (80, -4.13661450147628784180e-01) (81, -2.39786118268966674805e-01) (82, 2.20208793878555297852e-01) (83, 7.55333155393600463867e-02) (84, -4.03477326035499572754e-02) (85, 2.96620368957519531250e-01) (86, -2.38446846604347229004e-01) (87, -3.34578126668930053711e-01) (88, 7.06347942352294921875e-01) (89, 1.70350909233093261719e-01) (90, 4.06445972621440887451e-02) (91, -5.20356148481369018555e-02) (92, -1.84593033045530319214e-02) (93, 2.74698346853256225586e-01) (94, -3.03364664316177368164e-01) (95, 1.71199709177017211914e-01) (96, 1.07780225574970245361e-01) (97, 2.88396239280700683594e-01) (98, -1.20433129370212554932e-01) (99, -1.29563421010971069336e-01) (100, 2.71370440721511840820e-01) (101, -4.04128655791282653809e-02) (102, 8.92384424805641174316e-02) (103, 2.35569387674331665039e-01) (104, 2.46858447790145874023e-01) (105, 6.93585753440856933594e-01) (106, 1.40413001179695129395e-01) (107, 9.06836837530136108398e-02) (108, 2.07947403192520141602e-01) (109, 1.78909841924905776978e-02) (110, 1.83460578322410583496e-01) (111, -1.21613733470439910889e-01) (112, 2.65631735324859619141e-01) (113, 1.29177466034889221191e-01) (114, 2.70457893610000610352e-01) (115, 4.49755877256393432617e-01) (116, -5.64061701297760009766e-01) (117, -3.20472121238708496094e-01) (118, -2.57069587707519531250e-01) (119, -1.62663340568542480469e-01) (120, -1.04445248842239379883e-01) (121, -1.71307772397994995117e-01) (122, 2.30709880590438842773e-01) (123, 2.68880367279052734375e-01) (124, 3.82272869348526000977e-01) (125, 2.45616391301155090332e-01) (126, 3.48882555961608886719e-01) (127, 3.91799956560134887695e-01) (128, 3.67652401328086853027e-02) (129, 6.21501684188842773438e-01) (130, 1.85105457901954650879e-01) (131, 1.28143459558486938477e-01) (132, -3.74357044696807861328e-01) (133, -1.90444365143775939941e-01) (134, 2.64287769794464111328e-01) (135, -1.34654223918914794922e-01) (136, 2.28626042604446411133e-01) (137, 1.56802117824554443359e-01) (138, -2.18622192740440368652e-01) (139, -3.10841917991638183594e-01) (140, 2.18807744979858398438e+00) (141, 1.86039996147155761719e+00) (142, -3.92124414443969726562e-01) (143, -4.93391454219818115234e-01) (144, 5.50825476646423339844e-01) (145, 2.93881613761186599731e-02) (146, 6.44790604710578918457e-02) (147, -4.19292859733104705811e-02) (148, 2.37590387463569641113e-01) (149, 4.77767176926136016846e-03) (150, -1.27308046817779541016e+00) (151, 1.20980359613895416260e-01) (152, -6.75611972808837890625e-01) (153, 4.35248948633670806885e-02) (154, -3.14840257167816162109e-01) (155, -7.12589621543884277344e-01) (156, 5.83157956600189208984e-01) (157, 2.50435900688171386719e+00) (158, 3.00146311521530151367e-01) (159, 4.70398694276809692383e-01) (160, 1.18812866508960723877e-01) (161, 5.68035766482353210449e-02) (162, 2.97613173723220825195e-01) (163, 1.57250121235847473145e-01) (164, 4.79229390621185302734e-01) (165, 4.60289239883422851562e-01) (166, 3.09094816446304321289e-01) (167, 2.15286195278167724609e-01) (168, 7.71952688694000244141e-01) (169, 4.57627177238464355469e-01) (170, 2.52814739942550659180e-01) (171, 2.84904003143310546875e-01) (172, 2.10315614938735961914e-01) (173, -2.00682535767555236816e-01) (174, 3.60864996910095214844e-01) (175, 2.54510432481765747070e-01) (176, 3.29578965902328491211e-01) (177, 2.59701251983642578125e-01) (178, 2.57198482751846313477e-01) (179, 1.70723348855972290039e-01) (180, 3.25988143682479858398e-01) (181, -3.36573272943496704102e-01) (182, 2.86860466003417968750e-01) (183, 5.78269846737384796143e-02) (184, 6.69045671820640563965e-02) (185, -2.11844936013221740723e-01) (186, 9.80799138545989990234e-01) (187, 2.66056746244430541992e-01) (188, -4.61988635361194610596e-02) (189, 2.04723015427589416504e-01) (190, -4.03592526912689208984e-01) (191, -3.64597767591476440430e-01) (192, -3.85427951812744140625e-01) (193, -2.07580134272575378418e-01) (194, 1.07151433825492858887e-01) (195, -7.62982904911041259766e-01) (196, 2.31996273994445800781e+00) (197, 1.06953370571136474609e+00) (198, -3.45832139253616333008e-01) (199, -2.49112993478775024414e-01) (200, 1.77656769752502441406e+00) (201, 1.77248394489288330078e+00) (202, 1.50000000000000000000e+03) (203, 1.50000000000000000000e+03) (204, -1.46612450480461120605e-01) (205, -2.90603876113891601562e-01) (206, 4.11123633384704589844e-01) (207, 3.49711954593658447266e-01) (208, 5.59465456008911132812e+00) (209, 2.99762010574340820312e+00) (210, -6.68608379364013671875e+00) (211, -1.11547660827636718750e+00) (212, 1.52474486827850341797e+00) (213, 1.63302853703498840332e-01) (214, 1.49475634098052978516e-01) (215, 6.41934350132942199707e-02) (216, -7.72520840167999267578e-01) (217, 6.98090195655822753906e-01) (218, -1.28854942321777343750e+00) (219, 5.75390219688415527344e-01) (220, -6.53599321842193603516e-01) (221, 1.09150163829326629639e-01) (222, 5.27052497863769531250e+00) (223, 2.63325691223144531250e-01) (224, 7.97270596027374267578e-01) (225, 8.15005719661712646484e-01) (226, 1.74843025207519531250e+00) (227, 2.56839841604232788086e-01) (228, 8.99767637252807617188e-01) (229, 2.62240499258041381836e-01) (230, -2.55044102668762207031e-01) (231, -2.54391193389892578125e-01) (232, 9.47069823741912841797e-01) (233, 1.71915799379348754883e-01) (234, -5.55829882621765136719e-01) (235, -6.43037617206573486328e-01) (236, 4.13211109116673469543e-03) (237, 7.31772556900978088379e-02) (238, -2.63526290655136108398e-01) (239, 5.99466189742088317871e-02) (240, -8.28718423843383789062e-01) (241, 2.23536777496337890625e+00) (242, 8.27995657920837402344e-01) (243, 1.98959961533546447754e-01) (244, -4.51714769005775451660e-02) (245, 9.35731269419193267822e-03) (246, -8.56380403041839599609e-01) (247, -5.59532046318054199219e-01) (248, -5.59848174452781677246e-02) (249, 7.98401162028312683105e-02) (250, -2.52379655838012695312e-01) (251, 4.90763872861862182617e-01) (252, 1.51129856705665588379e-01) (253, 1.40657588839530944824e-01) (254, -2.32431381940841674805e-01) (255, -9.94523018598556518555e-02) (256, 1.39685884118080139160e-01) (257, -3.52753967046737670898e-01) (258, 2.71343302726745605469e+00) (259, 7.13748186826705932617e-02) (260, 1.06248986721038818359e+00) (261, -5.30044212937355041504e-02) (262, 8.89580249786376953125e-01) (263, 1.16191737353801727295e-01) (264, -2.29409384727478027344e+00) (265, -2.70427823066711425781e-01) (266, -1.26439905166625976562e+00) (267, -1.97315290570259094238e-02) (268, -1.89991748332977294922e+00) (269, 1.69970154762268066406e-01) (270, 1.16619467735290527344e+00) (271, 1.15961797535419464111e-01) (272, 4.39062547683715820312e+00) (273, 7.39069640636444091797e-01) (274, -1.42509303987026214600e-02) (275, 1.50223985314369201660e-01) (276, 5.81678971648216247559e-02) (277, -4.83595192432403564453e-01) (278, -1.34085893630981445312e-01) (279, -9.13095325231552124023e-02) (280, 6.83933317661285400391e-01) (281, 1.92886024713516235352e-01) (282, -1.44871425628662109375e+00) (283, 1.80262491106986999512e-01) (284, -8.57949927449226379395e-02) (285, 8.21035087108612060547e-01) (286, -9.40053015947341918945e-02) (287, 4.89808052778244018555e-01) (288, -2.05940201878547668457e-01) (289, -3.38230460882186889648e-01) (290, 1.26068130135536193848e-01) (291, 5.29841840267181396484e-01) (292, -1.27858984470367431641e+00) (293, 1.73467800021171569824e-01) (294, 1.51136085391044616699e-01) (295, -4.29709136486053466797e-01) (296, -3.75082641839981079102e-01) (297, 5.97361147403717041016e-01) (298, 9.79865044355392456055e-02) (299, -6.51060044765472412109e-02) (300, 8.20974290370941162109e-01) (301, 2.66273617744445800781e-01) (302, -9.86365675926208496094e-02) (303, -2.23612282425165176392e-02) (304, -3.97877991199493408203e-01) (305, -3.64281892776489257812e-01) (306, 9.09070745110511779785e-02) (307, 1.69517472386360168457e-01) (308, 3.71715873479843139648e-02) (309, 1.75716876983642578125e-01) (310, 1.67663156986236572266e-01) (311, 1.34124889969825744629e-01) (312, 1.11354398727416992188e+00) (313, -9.19359847903251647949e-02) (314, -6.94225728511810302734e-01) (315, -6.79511368274688720703e-01) (316, -1.48228943347930908203e-01) (317, -2.92018890380859375000e-01) (318, 4.74333353340625762939e-02) (319, -4.08397242426872253418e-02) (320, -1.48822724819183349609e-01) (321, -1.50290966033935546875e-01) (322, -8.43570590019226074219e-01) (323, -1.67608693242073059082e-01) (324, -9.39025059342384338379e-02) (325, -1.78281590342521667480e-01) (326, 1.94446265697479248047e+00) (327, 1.04855132102966308594e+00) (328, 2.13953450322151184082e-01) (329, -5.44577874243259429932e-02) (330, 1.33052432537078857422e+00) (331, 3.47066581249237060547e-01) (332, 2.97181993722915649414e-01) (333, 2.15802833437919616699e-01) (334, 4.65012103319168090820e-01) (335, 4.46966975927352905273e-01) (336, -3.41108649969100952148e-01) (337, -1.59482479095458984375e+00) (338, 1.62827372550964355469e-01) (339, -1.94877475500106811523e-01) (340, 4.31780427694320678711e-01) (341, 3.50173592567443847656e-01) (342, -1.77245092391967773438e+00) (343, -4.06369715929031372070e-01) (344, -2.41805076599121093750e-01) (345, 5.08118271827697753906e-01) (346, -2.67689377069473266602e-02) (347, 1.59583866596221923828e+00) (348, -2.77101963758468627930e-01) (349, -4.16158996522426605225e-02) (350, 4.80866700410842895508e-01) (351, -2.70999789237976074219e+00) (352, 7.58849203586578369141e-01) (353, -4.89329695701599121094e-01) (354, -1.16640186309814453125e+00) (355, 1.09989449381828308105e-01) (356, -1.88744828104972839355e-01) (357, 2.48670652508735656738e-01) (358, -6.68991565704345703125e-01) (359, -1.08336234092712402344e+00) (360, -5.84735059738159179688e+00) (361, 4.30085754394531250000e+00) (362, 6.49922013282775878906e-01) (363, 2.82195508480072021484e-01) (364, 1.40940740704536437988e-01) (365, -1.13188540935516357422e+00) (366, 5.86354136466979980469e-01) (367, -3.91342192888259887695e-01) (368, -2.71141201257705688477e-01) (369, -1.19069671630859375000e+00) (370, 8.80839228630065917969e-01) (371, 2.19605758786201477051e-01) (372, 1.66120314598083496094e+00) (373, 4.33086186647415161133e-01) (374, -7.48336851596832275391e-01) (375, 3.20630967617034912109e-01) (376, -6.59272909164428710938e+00) (377, -3.51085305213928222656e-01) (378, 1.82225203514099121094e+00) (379, -3.11503559350967407227e-01) (380, 5.45158243179321289062e+00) (381, 6.37732744216918945312e+00) (382, -1.31867909431457519531e+00) (383, 2.42790326476097106934e-01) (384, 3.00437641143798828125e+00) (385, 1.01218178868293762207e-01) (386, 1.40571813583374023438e+01) (387, -1.74358594417572021484e+00) (388, 7.52211391925811767578e-01) (389, -6.68393993377685546875e+00) (390, 1.57817578315734863281e+00) (391, 7.33785867691040039062e-01) (392, 5.42467975616455078125e+00) (393, 4.29963159561157226562e+00) (394, 1.73981738090515136719e+00) (395, 1.79584002494812011719e+00) (396, -2.37366214394569396973e-01) (397, -3.87564539909362792969e-01) (398, 4.58016729354858398438e+00) (399, -9.70516383647918701172e-01) (400, -1.49238750338554382324e-01) (401, -2.48616397380828857422e-01) (402, -1.23598232269287109375e+01) (403, 6.94945190429687500000e+02) (404, -2.50514894723892211914e-01) (405, -1.93518593907356262207e-01) (406, -2.91359215974807739258e-01) (407, -3.11657845973968505859e-01) (408, -1.25846910476684570312e+00) (409, 1.61119773983955383301e-01) (410, -1.58513978123664855957e-01) (411, -1.08459644019603729248e-01) (412, 5.04089951515197753906e-01) (413, 7.94659107923507690430e-02) (414, 5.08585944771766662598e-02) (415, -1.06634832918643951416e-01) (416, 1.19721993803977966309e-01) (417, 1.82539641857147216797e-01) (418, 2.37195253372192382812e-01) (419, 1.59245982766151428223e-01) (420, -1.05737292766571044922e+00) (421, -7.99052000045776367188e-01) (422, 1.55234146118164062500e+00) (423, -6.55737400054931640625e-01) (424, 5.26601135730743408203e-01) (425, 3.66281837224960327148e-01) (426, -6.76943397521972656250e+00) (427, -7.43496477603912353516e-01) (428, 4.33000177145004272461e-01) (429, -8.57520848512649536133e-02) (430, 1.92899608612060546875e+00) (431, 9.90488231182098388672e-01) (432, 2.24304556846618652344e-01) (433, -2.39478990435600280762e-01) (434, 1.83286279439926147461e-01) (435, 1.10934332013130187988e-01) (436, 6.89733982086181640625e+00) (437, 5.14060616493225097656e-01) (438, -2.79788583517074584961e-01) (439, -1.71853795647621154785e-01) (440, 1.17871828377246856689e-01) (441, 1.47436425089836120605e-01) (442, 4.96642410755157470703e-01) (443, 1.61196336150169372559e-01) (444, -3.59796166419982910156e-01) (445, 9.31821465492248535156e-02) (446, 2.74981588125228881836e-01) (447, 2.78265386819839477539e-01) (448, -1.05587029457092285156e+00) (449, -8.45131516456604003906e-01) (450, 1.92763581871986389160e-01) (451, -1.27214893698692321777e-01) (452, 3.58093649148941040039e-01) (453, -1.21663415431976318359e+00) (454, -7.31983780860900878906e-01) (455, 2.82584428787231445312e-01) (456, 1.72164157032966613770e-01) (457, 2.01265364885330200195e-01) (458, 2.74439960718154907227e-01) (459, -3.84710878133773803711e-02) (460, -9.46103394031524658203e-01) (461, -1.96455276012420654297e+00) (462, 5.29275119304656982422e-01) (463, -4.78926086425781250000e+00) (464, -1.87678590416908264160e-01) (465, -5.40123164653778076172e-01) (466, 1.49018955230712890625e+00) (467, 3.36690932512283325195e-01) (468, 5.63507258892059326172e-01) (469, -3.00222128629684448242e-01) (470, -8.55175435543060302734e-01) (471, -7.05402314662933349609e-01) (472, -1.08783590793609619141e+00) (473, 1.71491757035255432129e-01) (474, -7.54192098975181579590e-02) (475, 3.63113135099411010742e-01) (476, 6.49052441120147705078e-01) (477, 1.02872461080551147461e-01) (478, -3.19488430023193359375e+00) (479, 5.13743497431278228760e-02) (480, 2.46352386474609375000e+00) (481, 9.47517335414886474609e-01) (482, -2.74614423513412475586e-01) (483, 3.24019007384777069092e-02) (484, -1.97204545140266418457e-01) (485, 1.15642629563808441162e-01) (486, 6.94638967514038085938e-01) (487, 8.34539413452148437500e-01) (488, -1.13727040588855743408e-01) (489, -1.40900343656539916992e-01) (490, 7.94329702854156494141e-01) (491, 3.32460939884185791016e-01) (492, 1.57902085781097412109e+00) (493, -1.70006394386291503906e-01) (494, -5.51325023174285888672e-01) (495, -4.29772824048995971680e-01) (496, 1.08384764194488525391e+00) (497, 6.64874374866485595703e-01) (498, -6.45489096641540527344e-01) (499, -1.88890367746353149414e-01) (500, 1.16541171073913574219e+00) (501, 6.96204185485839843750e-01) (502, -1.19527184963226318359e+00) (503, -6.00066566467285156250e+00) (504, -7.39157274365425109863e-02) (505, 2.09443718194961547852e-01) (506, -5.87362408638000488281e-01) (507, -2.52925932407379150391e-01) (508, 6.47699609398841857910e-02) (509, 1.18071720004081726074e-01) (510, -3.77605259418487548828e-01) (511, 3.20191830396652221680e-01) (512, 1.92252427339553833008e-01) (513, 1.48399937152862548828e+00) (514, 2.89213508367538452148e-01) (515, 3.12907695770263671875e-01) (516, 1.54530420899391174316e-01) (517, 3.31925414502620697021e-02) (518, -6.61371588706970214844e-01) (519, -1.00717402994632720947e-01) (520, 3.58801428228616714478e-03) (521, -1.32736295461654663086e-01) (522, 2.77350574731826782227e-01) (523, 3.06792974472045898438e-01) (524, 1.04626640677452087402e-01) (525, 2.89138909429311752319e-02) (526, 3.59391242265701293945e-01) (527, -5.72194695472717285156e-01) (528, -1.43921875953674316406e+00) (529, -6.58719688653945922852e-02) (530, 3.29849779605865478516e-01) (531, 3.98735165596008300781e-01) (532, 1.10755932331085205078e+00) (533, 2.90833234786987304688e-01) (534, 1.24679185450077056885e-01) (535, 2.03258171677589416504e-01) (536, 3.77624444663524627686e-02) (537, -2.66354352235794067383e-01) (538, 4.40300732851028442383e-01) (539, 3.41370761394500732422e-01) (540, -1.94946769624948501587e-02) (541, -2.67460256814956665039e-01) (542, -1.24126181006431579590e-01) (543, -4.55604679882526397705e-02) (544, 2.05563113093376159668e-01) (545, 4.14987981319427490234e-01) (546, 8.68284463882446289062e-01) (547, -3.40514779090881347656e-01) (548, -7.06490427255630493164e-02) (549, 7.24446892738342285156e-01) (550, -7.69290030002593994141e-02) (551, -3.15493106842041015625e-01) (552, -2.19069078564643859863e-01) (553, -5.21104753017425537109e-01) (554, -1.46198477596044540405e-02) (555, -8.16463530063629150391e-01) (556, 1.59187361598014831543e-01) (557, -3.62945616245269775391e-01) (558, -9.64990139007568359375e-01) (559, -1.64004117250442504883e-01) (560, -8.35094228386878967285e-02) (561, -7.20917522907257080078e-01) (562, -4.60853397846221923828e-01) (563, -5.90917110443115234375e-01) (564, 1.21984906494617462158e-01) (565, 5.91519474983215332031e-02) (566, -1.31608796119689941406e+00) (567, -8.45578789710998535156e-01) (568, 2.70917606353759765625e+00) (569, 2.35733374953269958496e-01) (570, 3.23977202177047729492e-01) (571, -1.18111692368984222412e-01) (572, 3.12295913696289062500e-01) (573, 1.16786994040012359619e-01) (574, 2.38270610570907592773e-01) (575, 2.60699272155761718750e-01) (576, 5.62768697738647460938e-01) (577, 2.86517441272735595703e-01) (578, 9.08111557364463806152e-02) (579, -2.86583229899406433105e-02) (580, 1.20647259056568145752e-01) (581, 4.30316254496574401855e-02) (582, 1.34866476058959960938e-01) (583, 6.51877075433731079102e-02) (584, 3.98248583078384399414e-01) (585, 5.99317729473114013672e-01) (586, 1.19893267750740051270e-01) (587, 1.39997214078903198242e-01) (588, 6.13349139690399169922e-01) (589, -3.81503514945507049561e-02) (590, 5.74113309383392333984e-01) (591, -4.26005683839321136475e-02) (592, 1.80833548307418823242e-01) (593, 5.29415071010589599609e-01) (594, 2.80283302068710327148e-01) (595, 4.20716583728790283203e-01) (596, 2.25277855992317199707e-01) (597, 1.32238626480102539062e-01) (598, 1.27061307430267333984e-01) (599, 6.25912100076675415039e-02) (600, -1.24439127743244171143e-01) (601, 2.91849017143249511719e-01) (602, -1.38118788599967956543e-01) (603, -1.93251699209213256836e-01) (604, -1.63945294916629791260e-02) (605, -1.35434105992317199707e-01) (606, -2.74863153696060180664e-01) (607, -1.71489864587783813477e-01) (608, 8.00274670124053955078e-01) (609, 8.48178684711456298828e-01) (610, -2.84688115119934082031e+00) (611, -2.69582223892211914062e+00) (612, 3.52925240993499755859e-01) (0, -3.88193726539611816406e+00) (1, 4.22490775585174560547e-01) (2, -8.66106491088867187500e+01) (3, -8.34320127964019775391e-01) (4, 4.90952968597412109375e-01) (5, 5.35837292671203613281e-01) (6, 5.01214504241943359375e+00) (7, 4.20082509517669677734e-01) (8, 4.78796124458312988281e-01) (9, 4.18647170066833496094e-01) (10, -1.44661975097656250000e+03) (11, 8.75551283359527587891e-01) (12, -1.06406469726562500000e+03) (13, -2.31260711669921875000e+02) (14, -1.47758728027343750000e+03) (15, 4.61247116327285766602e-01) (16, 2.03148975372314453125e+01) (17, 2.39084121704101562500e+02) (18, -5.57905340194702148438e+00) (19, -1.94451324641704559326e-02) (20, -4.48854875564575195312e+00) (21, 7.25807800292968750000e+02) (22, -1.40768457031250000000e+03) (23, -1.43383166503906250000e+03) (24, 8.59456121921539306641e-01) (25, 5.21116882324218750000e+02) (26, -7.00200498104095458984e-01) (27, -1.11009490966796875000e+02) (28, 5.86368083953857421875e-01) (29, 1.49795422363281250000e+03) (30, -1.49903381347656250000e+03) (31, -1.49582739257812500000e+03) (32, -1.44194812011718750000e+03) (33, -1.44256103515625000000e+03) (34, -1.49671533203125000000e+03) (35, -1.50000000000000000000e+03) (36, -1.02697436523437500000e+03) (37, -1.50000000000000000000e+03) (38, -1.48990625000000000000e+03) (39, -1.37713574218750000000e+03) (40, -1.49303540039062500000e+03) (41, -1.46418286132812500000e+03) (42, -1.48758337402343750000e+03) (43, -1.47076989746093750000e+03) (44, -1.36690686035156250000e+03) (45, -1.48664843750000000000e+03) (46, 1.39420361328125000000e+03) (47, -1.47704943847656250000e+03) (48, -1.50000000000000000000e+03) (49, -1.49819812011718750000e+03) (50, -1.50000000000000000000e+03) (51, -1.46988305664062500000e+03) (52, -1.50000000000000000000e+03) (53, -1.48218872070312500000e+03) (54, -4.24655485153198242188e+00) (55, -1.71859451293945312500e+02) (56, -1.50000000000000000000e+03) (57, -1.33896313476562500000e+03) (58, 2.68896484375000000000e+02) (59, 1.49822314453125000000e+03) (60, 7.58136138916015625000e+01) (61, -1.61415541172027587891e+00) (62, 1.51596832275390625000e+00) (63, -1.59532353281974792480e-01) (64, -1.50000000000000000000e+03) (65, 2.87931385040283203125e+01) (66, 1.50000000000000000000e+03) (67, -1.44384814453125000000e+03) (68, 1.50000000000000000000e+03) (69, 1.38129064941406250000e+03) (70, -6.95677804946899414062e+00) (71, -1.48717163085937500000e+03) (72, -1.50000000000000000000e+03) (73, 1.44519775390625000000e+03) (74, 1.50000000000000000000e+03) (75, 1.48801599121093750000e+03) (76, -1.50000000000000000000e+03) (77, 3.81776924133300781250e+01) (78, -1.50000000000000000000e+03) (79, 2.02233850955963134766e-01) (80, 1.50000000000000000000e+03) (81, 1.37726562500000000000e+03) (82, 1.37820007324218750000e+03) (83, 1.48808129882812500000e+03) (84, 9.81386047363281250000e+02) (85, -7.93769287109375000000e+02) (86, -7.07278442382812500000e+02) (87, -1.30965161132812500000e+03) (88, -2.91720092773437500000e+02) (89, 1.41788597106933593750e+01) (90, 9.00230705738067626953e-01) (91, 1.49695849609375000000e+03) (92, 1.35084667968750000000e+03) (93, 1.10795324707031250000e+03) (94, -3.73171114921569824219e+00) (95, -1.73229157924652099609e+00) (96, 1.50000000000000000000e+03) (97, 1.49881445312500000000e+03) (98, 1.47142163085937500000e+03) (99, 1.39730798339843750000e+03) (100, 1.46356311035156250000e+03) (101, -3.29344635009765625000e+02) (102, 1.44762829589843750000e+03) (103, -1.47730175781250000000e+03) (104, -1.50000000000000000000e+03) (105, -1.48490454101562500000e+03) (106, -1.45910705566406250000e+03) (107, -1.47965722656250000000e+03) (108, -9.95141052246093750000e+02) (109, -1.49769824218750000000e+03) (110, -1.50000000000000000000e+03) (111, -1.49930578613281250000e+03) (112, -2.79960083007812500000e+02) (113, 1.22151440429687500000e+03) (114, -1.50000000000000000000e+03) (115, 5.52363891601562500000e+02) (116, -4.46271057128906250000e+02) (117, -1.47180224609375000000e+03) (118, -1.50000000000000000000e+03) (119, -1.49500183105468750000e+03) (120, 1.50000000000000000000e+03) (121, 1.35067651367187500000e+03) (122, -1.50000000000000000000e+03) (123, -1.48645410156250000000e+03) (124, -1.49065014648437500000e+03) (125, -1.48850793457031250000e+03) (126, 1.00767663574218750000e+03) (127, 1.21570533752441406250e+02) (128, -1.23906323242187500000e+03) (129, -1.39175793457031250000e+03) (130, -1.49530712890625000000e+03) (131, -1.49735388183593750000e+03) (132, 1.49886364746093750000e+03) (133, 1.49009521484375000000e+03) (134, 1.25835107421875000000e+03) (135, 1.47702624511718750000e+03) (136, 6.87135253906250000000e+02) (137, -4.62493041992187500000e+02) (138, -7.78878707885742187500e+01) (139, 1.24276893615722656250e+02) (140, -1.50000000000000000000e+03) (141, -1.34706823730468750000e+03) (142, 1.48087561035156250000e+03) (143, 1.49467370605468750000e+03) (144, 1.49977526855468750000e+03) (145, 1.49999475097656250000e+03) (146, 1.48445239257812500000e+03) (147, 1.43285803222656250000e+03) (148, -1.43181304931640625000e+02) (149, 1.35044873046875000000e+03) (150, 1.49999987792968750000e+03) (151, 1.49979394531250000000e+03) (152, 1.49998901367187500000e+03) (153, 1.47289294433593750000e+03) (154, 1.49988891601562500000e+03) (155, 1.49932092285156250000e+03) (156, 1.47100732421875000000e+03) (157, 5.94538818359375000000e+02) (158, 1.49861901855468750000e+03) (159, 1.49624145507812500000e+03) (160, 1.49977587890625000000e+03) (161, 1.48989257812500000000e+03) (162, 1.40914306640625000000e+03) (163, 1.42237292480468750000e+03) (164, 1.38140087890625000000e+03) (165, 1.36781750488281250000e+03) (166, 1.35442651367187500000e+03) (167, 1.14560058593750000000e+03) (168, 1.47113330078125000000e+03) (169, 1.47405786132812500000e+03) (170, 1.40468762207031250000e+03) (171, 8.38166564941406250000e+02) (172, 1.49979357910156250000e+03) (173, 1.19208361816406250000e+03) (174, 1.49955187988281250000e+03) (175, 1.37746765136718750000e+03) (176, 1.46659973144531250000e+03) (177, 1.49981799316406250000e+03) (178, 1.45888842773437500000e+03) (179, 1.05184875488281250000e+03) (180, 1.31168408203125000000e+03) (181, 1.49772070312500000000e+03) (182, 1.26859875488281250000e+03) (183, 1.21293273925781250000e+03) (184, 1.49015588378906250000e+03) (185, 1.49999926757812500000e+03) (186, 1.49960717773437500000e+03) (187, 1.49695788574218750000e+03) (188, 1.41509521484375000000e+03) (189, 1.31168725585937500000e+03) (190, 1.48298498535156250000e+03) (191, 1.28211376953125000000e+03) (192, 1.45176330566406250000e+03) (193, 1.44741662597656250000e+03) (194, 1.44611706542968750000e+03) (195, 1.49610009765625000000e+03) (196, 1.50000000000000000000e+03) (197, 4.34146697998046875000e+02) (198, 5.29995024204254150391e-01) (199, 6.83765888214111328125e-01) (200, 1.32913403320312500000e+03) (201, 1.04112756347656250000e+03) (202, -6.50000000000000000000e+02) (203, -9.00000000000000000000e+02) (204, 2.25412294268608093262e-01) (205, 4.17783707380294799805e-01) (206, 1.49723864746093750000e+03) (207, 1.49123718261718750000e+03) (208, 1.41739123535156250000e+03) (209, 1.46467968750000000000e+03) (210, -1.89442586898803710938e+00) (211, -4.43400800228118896484e-01) (212, 2.05818954467773437500e+02) (213, 1.80828049778938293457e-01) (214, 1.39221594238281250000e+03) (215, 5.39920377731323242188e+00) (216, -8.86823974609375000000e+02) (217, -6.99615661621093750000e+02) (218, 6.94460821151733398438e+00) (219, 1.53912901878356933594e+00) (220, -7.45416998863220214844e-01) (221, -4.24145236611366271973e-02) (222, -1.46751403808593750000e+03) (223, -1.53840720653533935547e+00) (224, -1.43748742675781250000e+03) (225, 2.88280653953552246094e+00) (226, -1.45609753417968750000e+03) (227, -3.94177532196044921875e+00) (228, -1.46617724609375000000e+03) (229, -8.36855792999267578125e+00) (230, 1.03985738754272460938e+01) (231, 3.46937990188598632812e+00) (232, 1.30969055175781250000e+02) (233, 1.60714876651763916016e+00) (234, -1.50000000000000000000e+03) (235, -1.50000000000000000000e+03) (236, -1.48552941894531250000e+03) (237, -1.48084020996093750000e+03) (238, -1.47318908691406250000e+03) (239, -1.50000000000000000000e+03) (240, -1.50000000000000000000e+03) (241, 1.47637658691406250000e+03) (242, -1.49755175781250000000e+03) (243, -1.91451442241668701172e+00) (244, -1.50000000000000000000e+03) (245, -2.56399230957031250000e+01) (246, -1.50000000000000000000e+03) (247, -1.47592834472656250000e+03) (248, 1.45177856445312500000e+03) (249, -1.46536437988281250000e+03) (250, -1.50000000000000000000e+03) (251, -1.49519409179687500000e+03) (252, -1.50000000000000000000e+03) (253, 4.05792109668254852295e-02) (254, -1.50000000000000000000e+03) (255, -1.49722448730468750000e+03) (256, -1.50000000000000000000e+03) (257, -1.45377242565155029297e+00) (258, 1.46467968750000000000e+03) (259, -1.49515148925781250000e+03) (260, -1.50000000000000000000e+03) (261, -1.59554469585418701172e+00) (262, -7.49487304687500000000e+02) (263, 7.49390945434570312500e+01) (264, -4.08216644287109375000e+02) (265, -1.51410257816314697266e+00) (266, -1.48852575683593750000e+03) (267, -3.67830610275268554688e+00) (268, 1.50000000000000000000e+03) (269, 3.00256818532943725586e-01) (270, 1.50000000000000000000e+03) (271, 3.38372039794921875000e+02) (272, 1.50000000000000000000e+03) (273, -1.00760364532470703125e+01) (274, 1.50000000000000000000e+03) (275, 9.92659362792968750000e+02) (276, 1.50000000000000000000e+03) (277, 1.36838720703125000000e+03) (278, 1.50000000000000000000e+03) (279, 8.48131958007812500000e+02) (280, -4.86302429199218750000e+02) (281, 1.15998852539062500000e+03) (282, -4.67045898437500000000e+01) (283, -1.32353015136718750000e+03) (284, 1.28874816894531250000e+03) (285, 1.47956201171875000000e+03) (286, 1.02580603027343750000e+03) (287, 1.40256323242187500000e+03) (288, 7.84405883789062500000e+02) (289, -1.46266357421875000000e+03) (290, -8.59788635253906250000e+02) (291, -1.13809863281250000000e+03) (292, -1.26123510742187500000e+03) (293, -1.56552534103393554688e+01) (294, -1.29534008789062500000e+03) (295, -8.64383972167968750000e+02) (296, -3.59482849121093750000e+02) (297, 1.47219897460937500000e+03) (298, 1.50000000000000000000e+03) (299, 1.49907666015625000000e+03) (300, 9.82899093627929687500e+01) (301, 1.47658666992187500000e+03) (302, 1.47292810058593750000e+03) (303, 1.49909106445312500000e+03) (304, 5.56349731445312500000e+02) (305, 7.36666625976562500000e+02) (306, -1.46705358886718750000e+03) (307, -1.49649401855468750000e+03) (308, -1.37232177734375000000e+03) (309, -1.49083996582031250000e+03) (310, -1.29450512695312500000e+03) (311, -1.48069592285156250000e+03) (312, -1.08518957519531250000e+03) (313, -1.49978771972656250000e+03) (314, -1.50000000000000000000e+03) (315, -1.48781188964843750000e+03) (316, -1.50000000000000000000e+03) (317, -8.16048828125000000000e+02) (318, -1.22140686035156250000e+03) (319, 4.65177520751953125000e+02) (320, -1.49535546875000000000e+03) (321, -1.49937963867187500000e+03) (322, -1.41083325195312500000e+03) (323, 1.49504638671875000000e+03) (324, -1.50000000000000000000e+03) (325, -1.48983789062500000000e+03) (326, -1.50000000000000000000e+03) (327, -1.48852905273437500000e+03) (328, -1.47500000000000000000e+03) (329, 1.12425219726562500000e+03) (330, -1.50000000000000000000e+03) (331, -1.49055712890625000000e+03) (332, -1.19211572265625000000e+03) (333, -1.36631445312500000000e+03) (334, -1.48918493652343750000e+03) (335, -9.84644470214843750000e+02) (336, 8.06371826171875000000e+02) (337, 1.24255920410156250000e+03) (338, -1.26896337890625000000e+03) (339, -1.49528955078125000000e+03) (340, 6.65699157714843750000e+02) (341, 6.22665588378906250000e+02) (342, 8.22858093261718750000e+02) (343, 1.47840466308593750000e+03) (344, 5.38097610473632812500e+01) (345, -1.42101208496093750000e+03) (346, 1.48532482910156250000e+03) (347, 1.10639733886718750000e+03) (348, 1.43355773925781250000e+03) (349, 4.77904853820800781250e+01) (350, 1.49970544433593750000e+03) (351, 4.15383636474609375000e+02) (352, 7.47036132812500000000e+02) (353, -2.30962722778320312500e+02) (354, 1.48994860839843750000e+03) (355, 1.50000000000000000000e+03) (356, 1.49981286621093750000e+03) (357, -5.58843261718750000000e+02) (358, 1.49978149414062500000e+03) (359, 1.54673156738281250000e+02) (360, 1.46598632812500000000e+03) (361, -7.58912658691406250000e+02) (362, 1.49976208496093750000e+03) (363, 1.50000000000000000000e+03) (364, 1.49953332519531250000e+03) (365, 1.05364343261718750000e+03) (366, 1.37099670410156250000e+03) (367, -1.21299816894531250000e+03) (368, 1.20472937011718750000e+03) (369, -1.46710717773437500000e+03) (370, 1.25315686035156250000e+03) (371, -1.44500000000000000000e+03) (372, 1.47128698730468750000e+03) (373, -9.31508544921875000000e+02) (374, 1.18939941406250000000e+03) (375, -4.38068237304687500000e+02) (376, 1.49999926757812500000e+03) (377, 5.78695251464843750000e+02) (378, 1.41286352539062500000e+03) (379, -6.20919433593750000000e+02) (380, 1.44404357910156250000e+03) (381, 1.48399902343750000000e+03) (382, 1.31142285156250000000e+03) (383, -1.44252368164062500000e+03) (384, 1.15474157714843750000e+03) (385, 7.23131652832031250000e+02) (386, 1.15478125000000000000e+03) (387, 4.46924407958984375000e+02) (388, 1.47542480468750000000e+03) (389, 1.44551257324218750000e+03) (390, 1.29849914550781250000e+03) (391, -5.89780029296875000000e+02) (392, 1.31486499023437500000e+03) (393, 4.76987548828125000000e+02) (394, 1.46574047851562500000e+03) (395, 1.16723425292968750000e+03) (396, 1.42147521972656250000e+03) (397, 3.67815765380859375000e+02) (398, 1.47180578613281250000e+03) (399, 1.42260412597656250000e+03) (400, 1.25117822265625000000e+03) (401, 9.96201660156250000000e+02) (402, -1.66806579589843750000e+02) (403, -1.50000000000000000000e+03) (404, 4.30784749984741210938e+00) (405, 1.15120124816894531250e+01) (406, 6.34772658348083496094e-01) (407, 5.81643939018249511719e-01) (408, 7.28154113769531250000e+02) (409, 7.18990173339843750000e+01) (410, 1.86590156555175781250e+01) (411, 9.47858200073242187500e+01) (412, 7.22482849121093750000e+02) (413, 1.24725599288940429688e+01) (414, 1.03729295730590820312e+00) (415, -2.36313622444868087769e-02) (416, 1.09853234863281250000e+03) (417, 2.41880435943603515625e+01) (418, -5.20857477188110351562e+00) (419, 2.25610947608947753906e+00) (420, -1.06510949707031250000e+03) (421, -9.34468200683593750000e+02) (422, 1.50000000000000000000e+03) (423, 1.23350244140625000000e+03) (424, -1.42071199417114257812e+01) (425, 1.06504678726196289062e+01) (426, 3.79519592285156250000e+02) (427, -4.23082000732421875000e+02) (428, -1.44000708007812500000e+03) (429, 6.12596008300781250000e+02) (430, -1.47735168457031250000e+03) (431, 7.86106033325195312500e+01) (432, 1.50000000000000000000e+03) (433, 6.14494873046875000000e+02) (434, 8.38363265991210937500e+01) (435, 4.89412337541580200195e-01) (436, 1.50000000000000000000e+03) (437, -7.67945251464843750000e+02) (438, -5.77961486816406250000e+02) (439, -6.42674682617187500000e+02) (440, -1.44235229492187500000e+03) (441, -1.50000000000000000000e+03) (442, -1.49011645507812500000e+03) (443, -1.50000000000000000000e+03) (444, -1.49550927734375000000e+03) (445, -1.50000000000000000000e+03) (446, -1.49718713378906250000e+03) (447, -1.50000000000000000000e+03) (448, -1.50000000000000000000e+03) (449, -1.49551843261718750000e+03) (450, -1.50000000000000000000e+03) (451, -1.43765063476562500000e+03) (452, -1.50000000000000000000e+03) (453, -1.47443872070312500000e+03) (454, 5.88964004516601562500e+01) (455, -1.35450988769531250000e+03) (456, -1.50000000000000000000e+03) (457, -1.27340519428253173828e+00) (458, -1.50000000000000000000e+03) (459, -1.46245251464843750000e+03) (460, -1.50000000000000000000e+03) (461, -1.49750378417968750000e+03) (462, 7.58242858886718750000e+02) (463, -1.43341198730468750000e+03) (464, -1.50000000000000000000e+03) (465, 1.42962961196899414062e+01) (466, -6.02899353027343750000e+02) (467, 1.49330310058593750000e+03) (468, 1.49220007324218750000e+03) (469, 8.68115425109863281250e-01) (470, 7.46152160644531250000e+02) (471, -1.99788703918457031250e+01) (472, -3.90946899414062500000e+02) (473, -1.19120959472656250000e+03) (474, 1.50000000000000000000e+03) (475, 1.44941711425781250000e+03) (476, 1.38517260742187500000e+03) (477, 1.45329992675781250000e+03) (478, 1.25834252929687500000e+03) (479, -1.16149787902832031250e+01) (480, -1.50000000000000000000e+03) (481, 1.34645739746093750000e+03) (482, 1.50000000000000000000e+03) (483, 1.39598364257812500000e+03) (484, 1.50000000000000000000e+03) (485, 1.15002941894531250000e+03) (486, 1.50000000000000000000e+03) (487, -8.94573059082031250000e+01) (488, 1.46416809082031250000e+03) (489, 1.49979565429687500000e+03) (490, 8.43502441406250000000e+02) (491, 1.48142541503906250000e+03) (492, -1.37473718261718750000e+03) (493, -1.48553967285156250000e+03) (494, -1.09435516357421875000e+02) (495, -8.09261657714843750000e+02) (496, -6.05187866210937500000e+02) (497, 1.49710278320312500000e+03) (498, 1.47107727050781250000e+03) (499, -7.67038146972656250000e+02) (500, -4.73380004882812500000e+02) (501, 1.34553207397460937500e+02) (502, -4.02602119445800781250e+01) (503, 1.44647567749023437500e+02) (504, 1.50000000000000000000e+03) (505, 1.49948559570312500000e+03) (506, 1.50000000000000000000e+03) (507, 1.41453332519531250000e+03) (508, 3.13852569580078125000e+02) (509, -7.61809692382812500000e+02) (510, -1.43175512695312500000e+03) (511, -1.48772277832031250000e+03) (512, -1.50000000000000000000e+03) (513, -1.48962500000000000000e+03) (514, -1.46008520507812500000e+03) (515, -1.48455371093750000000e+03) (516, -9.49359985351562500000e+02) (517, -1.48518371582031250000e+03) (518, -1.50000000000000000000e+03) (519, -1.48933654785156250000e+03) (520, -1.41006799316406250000e+03) (521, -2.12539916992187500000e+02) (522, -1.44768933105468750000e+03) (523, 6.38434997558593750000e+02) (524, -2.75523284912109375000e+02) (525, -1.48321936035156250000e+03) (526, 6.64372375488281250000e+02) (527, 7.69863891601562500000e+02) (528, 1.50000000000000000000e+03) (529, 1.49999938964843750000e+03) (530, -1.50000000000000000000e+03) (531, -1.48683911132812500000e+03) (532, -5.31772422790527343750e+01) (533, -8.51488586425781250000e+02) (534, 8.07386860251426696777e-02) (535, 4.59191101074218750000e+02) (536, -1.15945458984375000000e+03) (537, -1.35681298828125000000e+03) (538, -1.37036169433593750000e+03) (539, -3.67712936401367187500e+01) (540, 1.49678588867187500000e+03) (541, 1.49877001953125000000e+03) (542, 1.48660681152343750000e+03) (543, 1.43134313964843750000e+03) (544, 2.26965042114257812500e+02) (545, -3.35784835815429687500e+01) (546, 1.38279626464843750000e+03) (547, 1.45314184570312500000e+03) (548, -7.57774047851562500000e+02) (549, -9.75882263183593750000e+02) (550, 1.42836022949218750000e+03) (551, 1.47757177734375000000e+03) (552, 1.43642419433593750000e+03) (553, 1.49999865722656250000e+03) (554, 9.67944641113281250000e+02) (555, 1.49669982910156250000e+03) (556, 4.46764251708984375000e+02) (557, 1.11125695800781250000e+03) (558, 1.49071520996093750000e+03) (559, 1.49238793945312500000e+03) (560, 1.42565637207031250000e+03) (561, 8.41399536132812500000e+02) (562, 1.49996411132812500000e+03) (563, 1.49955895996093750000e+03) (564, -1.85114913940429687500e+02) (565, 1.32730621337890625000e+02) (566, 1.37218945312500000000e+03) (567, 1.49857739257812500000e+03) (568, 1.38044323730468750000e+03) (569, 1.49994787597656250000e+03) (570, 1.46961157226562500000e+03) (571, 1.21132177734375000000e+03) (572, 1.44041662597656250000e+03) (573, 1.48442980957031250000e+03) (574, -3.71606750488281250000e+02) (575, 1.49290820312500000000e+03) (576, 1.28341723632812500000e+03) (577, 9.07384094238281250000e+02) (578, 1.48669116210937500000e+03) (579, 1.48892919921875000000e+03) (580, 1.46836889648437500000e+03) (581, 1.49994921875000000000e+03) (582, 1.44889978027343750000e+03) (583, 8.13777954101562500000e+02) (584, 1.39895764160156250000e+03) (585, 1.49947656250000000000e+03) (586, 1.24677307128906250000e+03) (587, -4.16116546630859375000e+02) (588, 1.20586767578125000000e+03) (589, 5.22081115722656250000e+02) (590, 8.12715332031250000000e+02) (591, 1.16417700195312500000e+03) (592, 1.30701733398437500000e+03) (593, 1.48889746093750000000e+03) (594, 1.30363647460937500000e+03) (595, 5.42725891113281250000e+02) (596, 1.36200842285156250000e+03) (597, 8.20756530761718750000e+02) (598, 1.41452001953125000000e+03) (599, 1.23686706542968750000e+03) (600, 1.49807482910156250000e+03) (601, 1.44337939453125000000e+03) (602, 1.49558569335937500000e+03) (603, 5.34562622070312500000e+02) (604, 1.49986035156250000000e+03) (605, 1.49206726074218750000e+03) (606, 6.12072110176086425781e-01) (607, 1.06081211566925048828e+00) (608, 7.98410278320312500000e+02) (609, 7.82146057128906250000e+02) (610, -1.28217517089843750000e+03) (611, -9.69025329589843750000e+02) (612, -1.34581172466278076172e+00) (0, -1.79029732942581176758e-01) (1, -9.17765051126480102539e-02) (2, -2.08191499114036560059e-01) (3, 1.54356835409998893738e-02) (4, -2.74453759193420410156e-01) (5, -1.89016431570053100586e-01) (6, -2.91521549224853515625e-01) (7, -1.48484364151954650879e-01) (8, -1.61323100328445434570e-01) (9, -2.62293636798858642578e-01) (10, 1.42757425308227539062e+01) (11, 6.77615118026733398438e+00) (12, -4.33130383491516113281e-01) (13, -4.46727499365806579590e-02) (14, -1.09477210044860839844e+00) (15, -1.24572120606899261475e-01) (16, -2.24590916186571121216e-02) (17, -1.29555419087409973145e-01) (18, -1.19746096432209014893e-01) (19, -1.51793546974658966064e-02) (20, 3.72694917023181915283e-02) (21, -1.58912181854248046875e-01) (22, -4.18280935287475585938e+00) (23, 7.53644347190856933594e-01) (24, 3.42285782098770141602e-02) (25, 1.57695308327674865723e-01) (26, 3.45570705831050872803e-02) (27, 7.50294178724288940430e-02) (28, -5.83978071808815002441e-02) (29, 6.49106502532958984375e-02) (30, 3.62588465213775634766e-01) (31, 3.51717412471771240234e-01) (32, -1.40158131718635559082e-01) (33, 1.65530174970626831055e-01) (34, -5.26675283908843994141e-02) (35, -9.14657488465309143066e-02) (36, 3.50199155509471893311e-02) (37, -2.09723412990570068359e-01) (38, -4.28263917565345764160e-02) (39, -3.06207418441772460938e-01) (40, -5.75662016868591308594e-01) (41, -1.97693463414907455444e-02) (42, -1.05917787551879882812e+00) (43, -2.25032735615968704224e-02) (44, -3.29215735197067260742e-01) (45, -3.31638604402542114258e-02) (46, 8.79873216152191162109e-01) (47, 3.84068369865417480469e+00) (48, -8.84711071848869323730e-02) (49, -1.21365778148174285889e-01) (50, -3.52136157453060150146e-02) (51, -2.98913270235061645508e-02) (52, 2.43997663259506225586e-01) (53, 4.96398746967315673828e-01) (54, -2.23400667309761047363e-02) (55, 4.14828330278396606445e-01) (56, -3.25818717479705810547e-01) (57, 1.00835248827934265137e-01) (58, 1.49988278746604919434e-01) (59, 9.17376056313514709473e-02) (60, -1.35607048869132995605e-01) (61, -3.50526627153158187866e-03) (62, 3.09735178947448730469e-01) (63, 9.00563716888427734375e-01) (64, -3.48253941535949707031e+00) (65, -1.26977682113647460938e-01) (66, -3.56210207939147949219e+00) (67, 1.04362237453460693359e+00) (68, 6.88878372311592102051e-02) (69, 7.30602502822875976562e-01) (70, -4.36898231506347656250e-01) (71, -4.07701246440410614014e-02) (72, -4.96843725442886352539e-01) (73, 5.44548809528350830078e-01) (74, 1.86828091740608215332e-01) (75, 5.67588746547698974609e-01) (76, -9.69954299926757812500e+00) (77, 5.14853358268737792969e-01) (78, -5.68310208618640899658e-02) (79, 5.19113719463348388672e-01) (80, 2.82701015472412109375e-01) (81, 2.41620689630508422852e-01) (82, 1.60798728466033935547e-01) (83, 5.05244255065917968750e-01) (84, 7.34082683920860290527e-02) (85, 3.08660745620727539062e-01) (86, -1.17292606830596923828e+00) (87, -2.08948254585266113281e-01) (88, -1.00197696685791015625e+00) (89, 1.35188937187194824219e+00) (90, 2.80755814164876937866e-02) (91, 7.58912339806556701660e-02) (92, 4.31619524955749511719e-01) (93, 7.19824016094207763672e-01) (94, -1.06094861030578613281e+00) (95, -3.81315827369689941406e-01) (96, 1.08689808845520019531e+00) (97, 1.98959898948669433594e+00) (98, -1.57951697707176208496e-01) (99, -2.37286850810050964355e-01) (100, 4.79170054197311401367e-01) (101, 1.07247494161128997803e-01) (102, -7.95877650380134582520e-02) (103, 4.13488179445266723633e-01) (104, -1.62900716066360473633e-01) (105, 7.50343799591064453125e-02) (106, 5.34374080598354339600e-02) (107, 9.86157238483428955078e-01) (108, -1.17545950412750244141e+00) (109, -2.85490608215332031250e+00) (110, 7.29463577270507812500e-01) (111, 5.55855631828308105469e-01) (112, -3.05091023445129394531e+00) (113, -6.21839642524719238281e-01) (114, -1.58436608314514160156e+00) (115, 9.84151959419250488281e-01) (116, -4.44737702608108520508e-01) (117, 1.62681609392166137695e-01) (118, -1.01650428771972656250e+00) (119, -6.20098769664764404297e-01) (120, -1.25672236084938049316e-01) (121, 1.96547150611877441406e+00) (122, 9.83851850032806396484e-01) (123, 6.16853117942810058594e-01) (124, -1.85421383380889892578e+00) (125, 3.43397617340087890625e+00) (126, -1.61851849406957626343e-02) (127, 1.47260189056396484375e-01) (128, -7.19453930854797363281e-01) (129, -6.18673145771026611328e-01) (130, 9.26482498645782470703e-01) (131, 3.24467086791992187500e+00) (132, 3.94032657146453857422e-01) (133, 4.34362024068832397461e-01) (134, 1.73773550987243652344e+00) (135, -7.23424032330513000488e-02) (136, 4.29243892431259155273e-01) (137, 4.07909899950027465820e-02) (138, 4.79050576686859130859e-02) (139, 7.42379277944564819336e-02) (140, -2.27445602416992187500e-01) (141, 5.73994576930999755859e-01) (142, 1.29542440176010131836e-01) (143, 1.92424684762954711914e-01) (144, -6.19864940643310546875e-01) (145, -2.21283650398254394531e+00) (146, 4.26220055669546127319e-03) (147, 1.62189424037933349609e-01) (148, -1.10751345753669738770e-01) (149, 6.47300435230135917664e-03) (150, 1.60149240493774414062e+00) (151, -8.98513346910476684570e-02) (152, 1.03583717346191406250e+00) (153, 1.08478598296642303467e-01) (154, 7.15053379535675048828e-02) (155, -6.70688450336456298828e-02) (156, -3.67810158059000968933e-03) (157, -8.67368280887603759766e-02) (158, 5.44289946556091308594e-01) (159, -1.00379836559295654297e+00) (160, 8.70597288012504577637e-02) (161, -1.45794761180877685547e+00) (162, -4.97466325759887695312e-02) (163, 3.01109611988067626953e-01) (164, 4.01727885007858276367e-01) (165, 8.32430571317672729492e-02) (166, 2.51075714826583862305e-01) (167, 9.91172343492507934570e-02) (168, -3.00114173442125320435e-02) (169, 2.96767830848693847656e+00) (170, -1.14518582820892333984e+00) (171, 1.16586551070213317871e-01) (172, -5.39611637592315673828e-01) (173, 4.02371793985366821289e-01) (174, 1.79706569761037826538e-02) (175, -3.74018430709838867188e-01) (176, -1.05734340846538543701e-01) (177, -1.11834362149238586426e-01) (178, -2.26786211133003234863e-01) (179, 1.99234992265701293945e-01) (180, 1.69922500848770141602e-01) (181, -1.60841703414916992188e-01) (182, -1.03855445981025695801e-01) (183, 3.33353430032730102539e-01) (184, -1.35035619139671325684e-01) (185, 1.17815077304840087891e+00) (186, -6.07279002666473388672e-01) (187, -7.65851378440856933594e-01) (188, 1.49726212024688720703e+00) (189, -7.67297744750976562500e-02) (190, 1.69672265648841857910e-01) (191, 2.22402498126029968262e-01) (192, -8.46084132790565490723e-02) (193, -6.19999542832374572754e-02) (194, -9.57818850874900817871e-02) (195, 2.77180433273315429688e+00) (196, -5.16840964555740356445e-02) (197, 7.48650431632995605469e-01) (198, 1.10883764922618865967e-01) (199, -1.16285845637321472168e-01) (200, 8.43733474612236022949e-02) (201, -4.10584092140197753906e-01) (202, -6.50000000000000000000e+02) (203, -9.00000000000000000000e+02) (204, -1.51000186800956726074e-01) (205, -8.02064239978790283203e-02) (206, -4.82276529073715209961e-01) (207, -7.84589290618896484375e-01) (208, 8.45470428466796875000e+00) (209, -2.12167596817016601562e+00) (210, 1.19733273983001708984e-01) (211, -3.67355555295944213867e-01) (212, -1.00354385375976562500e+01) (213, -3.01682680845260620117e-01) (214, -1.43972411751747131348e-01) (215, 2.13046595454216003418e-02) (216, 2.58354644775390625000e+01) (217, -1.22200870513916015625e+00) (218, -2.54243552684783935547e-01) (219, -5.53274393081665039062e-01) (220, 3.43229994177818298340e-02) (221, 1.94476768374443054199e-01) (222, -9.61067390441894531250e+00) (223, -3.98995220661163330078e-01) (224, -9.93180871009826660156e-01) (225, -3.86048393249511718750e+01) (226, -3.52554273605346679688e+00) (227, -3.65726083517074584961e-01) (228, -1.17061252593994140625e+01) (229, -9.48785841464996337891e-02) (230, 5.70680014789104461670e-02) (231, 8.75347554683685302734e-02) (232, -3.03279459476470947266e-01) (233, 8.07178094983100891113e-02) (234, 1.88264644145965576172e+00) (235, 1.61985361576080322266e+00) (236, -9.76047143340110778809e-02) (237, -2.80076358467340469360e-02) (238, -1.55308604240417480469e+00) (239, -2.69201660156250000000e+00) (240, -1.79421707987785339355e-01) (241, 1.45654606819152832031e+00) (242, -1.77466845512390136719e+00) (243, -4.63583528995513916016e-01) (244, -1.65249395370483398438e+00) (245, 3.57547476887702941895e-02) (246, -4.06975358724594116211e-01) (247, -1.40933796763420104980e-01) (248, -1.43796455860137939453e+00) (249, -4.46599256247282028198e-03) (250, 3.73618483543395996094e+00) (251, 4.50767517089843750000e-01) (252, -5.12367188930511474609e-01) (253, 1.29420340061187744141e-01) (254, -4.65953254699707031250e+00) (255, 3.85959595441818237305e-02) (256, -1.12183034420013427734e+00) (257, -4.73385266959667205811e-02) (258, 3.77772140502929687500e+00) (259, -1.11158728599548339844e-01) (260, -1.04705834388732910156e+00) (261, -2.00714379549026489258e-01) (262, 5.05966305732727050781e-01) (263, 5.34692034125328063965e-02) (264, -1.49960041046142578125e+00) (265, -8.64616036415100097656e-02) (266, -3.70783042907714843750e+00) (267, -8.08747038245201110840e-02) (268, 4.60093164443969726562e+00) (269, 1.71244870871305465698e-02) (270, 8.01230430603027343750e-01) (271, -4.63198304176330566406e-01) (272, 4.88319158554077148438e+00) (273, -2.13596418499946594238e-01) (274, -4.46311378479003906250e+00) (275, 1.69698148965835571289e-02) (276, 3.05053186416625976562e+00) (277, -2.31961254030466079712e-02) (278, 9.94502827525138854980e-02) (279, 3.79170104861259460449e-02) (280, -1.38797359466552734375e+01) (281, -5.83451509475708007812e-01) (282, 1.01334886550903320312e+01) (283, 4.20786738395690917969e-01) (284, 1.29568588733673095703e+00) (285, -1.56826362013816833496e-01) (286, -6.44095063209533691406e-01) (287, -4.09771633148193359375e+00) (288, 1.95527642965316772461e-01) (289, -9.35398116707801818848e-02) (290, -1.61824464797973632812e+00) (291, -7.93429255485534667969e-01) (292, 1.15533459186553955078e+00) (293, 2.43199586868286132812e-01) (294, 1.40049606561660766602e-01) (295, -5.22752739489078521729e-02) (296, 6.39872360229492187500e+00) (297, -8.05203199386596679688e-01) (298, 2.34087720513343811035e-01) (299, -2.88555353879928588867e-01) (300, -4.17834520339965820312e-01) (301, 2.14251026511192321777e-01) (302, -4.19551849365234375000e-01) (303, 4.30160388350486755371e-02) (304, 8.51421892642974853516e-01) (305, 6.54664516448974609375e-01) (306, -2.86119043827056884766e-01) (307, 1.32459804415702819824e-01) (308, 3.98283791542053222656e+00) (309, 1.38989374041557312012e-01) (310, -4.55540716648101806641e-02) (311, 5.23630917072296142578e-01) (312, 2.16954365372657775879e-01) (313, 8.25054228305816650391e-01) (314, -2.90148574858903884888e-02) (315, -9.73289310932159423828e-01) (316, 6.69864952564239501953e-01) (317, -3.47084760665893554688e-01) (318, -1.97372221946716308594e+00) (319, 3.06985139846801757812e-01) (320, -1.70851695537567138672e+00) (321, -7.75652587413787841797e-01) (322, 9.94023978710174560547e-01) (323, 2.78201341629028320312e-01) (324, -3.22857403755187988281e+00) (325, 2.33080238103866577148e-01) (326, 7.80040860176086425781e-01) (327, 1.26839473843574523926e-01) (328, 2.10841617584228515625e+01) (329, 6.87762141227722167969e-01) (330, -1.22555993497371673584e-01) (331, -6.32281124591827392578e-01) (332, 7.30344131588935852051e-02) (333, 4.18736152350902557373e-02) (334, 2.41220474243164062500e+00) (335, 3.06675434112548828125e+00) (336, 7.57012367248535156250e-01) (337, 4.66631984710693359375e+00) (338, 5.62582910060882568359e-02) (339, -2.24612224847078323364e-02) (340, -1.15104332566261291504e-01) (341, -8.93871113657951354980e-02) (342, -5.33408761024475097656e-01) (343, -2.79142808914184570312e+00) (344, 1.80978310108184814453e+00) (345, 2.62432724237442016602e-01) (346, -3.08759003877639770508e-01) (347, -1.09956497326493263245e-02) (348, 4.43354904651641845703e-01) (349, 4.39781174063682556152e-02) (350, 4.44904327392578125000e-01) (351, -2.66586899757385253906e+00) (352, 7.19383433461189270020e-02) (353, -3.46188575029373168945e-01) (354, -2.23924353718757629395e-01) (355, -5.66546082496643066406e-01) (356, -2.34486505389213562012e-01) (357, -1.18312016129493713379e-02) (358, 6.26977264881134033203e-01) (359, -2.74193465709686279297e-01) (360, -9.18785572052001953125e-01) (361, 1.55104711651802062988e-01) (362, -2.82890558242797851562e+00) (363, -3.43131113052368164062e+00) (364, 1.89414963126182556152e-01) (365, -2.91169077157974243164e-01) (366, -1.86881661415100097656e+00) (367, 4.79698814451694488525e-02) (368, 6.68175792694091796875e+00) (369, 5.24344682693481445312e-01) (370, 3.29849314689636230469e+00) (371, 3.10196638107299804688e+00) (372, -8.67437481880187988281e-01) (373, 2.47908115386962890625e+00) (374, 5.18096804618835449219e-01) (375, -7.94968664646148681641e-01) (376, 4.19775284826755523682e-02) (377, -2.70782768726348876953e-01) (378, 3.26598346233367919922e-01) (379, 6.70284509658813476562e-01) (380, 1.44579485058784484863e-01) (381, -4.63230758905410766602e-02) (382, -7.69181966781616210938e-01) (383, 2.20963343977928161621e-01) (384, 1.30869221687316894531e+00) (385, 2.46229499578475952148e-01) (386, -1.00422525405883789062e+00) (387, 6.18294715881347656250e-01) (388, -1.17377996444702148438e+00) (389, -5.27417957782745361328e-02) (390, -1.64044952392578125000e+00) (391, -1.66602253913879394531e+00) (392, -2.41064250469207763672e-01) (393, -2.51796059310436248779e-02) (394, -8.18133890628814697266e-01) (395, -1.07042109966278076172e+00) (396, 3.76344881951808929443e-02) (397, -8.44726264476776123047e-02) (398, -4.24472427368164062500e+00) (399, 1.07463628053665161133e-01) (400, -6.79650232195854187012e-02) (401, -4.70771342515945434570e-02) (402, 9.56673204898834228516e-01) (403, -6.60511064529418945312e+00) (404, 2.35137283802032470703e-01) (405, 5.67080453038215637207e-02) (406, 2.44825661182403564453e-01) (407, 2.06378519535064697266e-01) (408, -6.85067772865295410156e-02) (409, -2.38192707300186157227e-01) (410, -1.49797990918159484863e-01) (411, -5.81615343689918518066e-02) (412, -8.07379782199859619141e-02) (413, -1.14950858056545257568e-01) (414, -1.23880051076412200928e-01) (415, -9.61048528552055358887e-02) (416, 9.29864570498466491699e-02) (417, -7.55593180656433105469e-02) (418, 5.50320529937744140625e+00) (419, -4.59531545639038085938e-01) (420, -1.34671211242675781250e+01) (421, -9.48548853397369384766e-01) (422, -1.10942420959472656250e+01) (423, 1.16367559432983398438e+01) (424, -3.13295632600784301758e-01) (425, -4.01673585176467895508e-01) (426, -3.78728246688842773438e+00) (427, -2.35474109649658203125e+01) (428, -4.33325499296188354492e-01) (429, -5.14168262481689453125e-01) (430, -7.88054513931274414062e+00) (431, -1.77845132350921630859e+00) (432, -1.77719173431396484375e+01) (433, -8.93856406211853027344e-01) (434, 5.99473454058170318604e-02) (435, 1.05576381087303161621e-01) (436, -1.92823100090026855469e+00) (437, 2.52283048629760742188e+00) (438, 4.68040667474269866943e-02) (439, 4.69566173851490020752e-02) (440, -7.86846280097961425781e-01) (441, -8.94605457782745361328e-01) (442, 2.06769779324531555176e-01) (443, -9.60763916373252868652e-03) (444, -4.85567837953567504883e-01) (445, -2.60051842778921127319e-02) (446, -3.32730561494827270508e-01) (447, -6.48338198661804199219e-01) (448, -5.44083476066589355469e-01) (449, 3.71674932539463043213e-02) (450, -5.64917182922363281250e+00) (451, -4.93830293416976928711e-01) (452, -3.18124443292617797852e-01) (453, -1.96213185787200927734e-01) (454, 6.31831049919128417969e-01) (455, 6.82499825954437255859e-01) (456, -1.05440981686115264893e-01) (457, 1.22651860117912292480e-01) (458, -4.55100417137145996094e-01) (459, -2.15526431798934936523e-01) (460, 9.23766708374023437500e+00) (461, 3.65560078620910644531e+00) (462, -6.87863826751708984375e+00) (463, 2.55728745460510253906e+00) (464, -4.88847255706787109375e-01) (465, -1.04619130492210388184e-01) (466, 2.08222508430480957031e+00) (467, -2.18346223235130310059e-01) (468, -3.06891512870788574219e+00) (469, 1.93230822682380676270e-01) (470, 3.49192619323730468750e-01) (471, 2.70128641277551651001e-02) (472, 1.47963058948516845703e+00) (473, -1.03497278690338134766e+00) (474, 2.29238033294677734375e+00) (475, 4.43753659725189208984e-01) (476, -1.25907629728317260742e-01) (477, 3.46895277500152587891e-01) (478, -2.29943418502807617188e+00) (479, 6.70115184038877487183e-03) (480, 2.87091946601867675781e+00) (481, 1.85024130344390869141e+00) (482, -4.09953713417053222656e-01) (483, 3.02926123142242431641e-01) (484, -1.16701424121856689453e-01) (485, 2.58490592241287231445e-01) (486, -3.02083301544189453125e+00) (487, 2.59126693010330200195e-01) (488, -7.03820133209228515625e+00) (489, 4.50462967157363891602e-01) (490, 4.18735742568969726562e+00) (491, 1.00199830532073974609e+00) (492, 1.50453910231590270996e-01) (493, 3.92988801002502441406e-01) (494, -3.96279633045196533203e-01) (495, -2.07489609718322753906e-01) (496, 7.32936849817633628845e-03) (497, 1.42530298233032226562e+00) (498, -8.84850978851318359375e-01) (499, 4.16193902492523193359e-02) (500, 1.73486745357513427734e+00) (501, 8.06896567344665527344e-01) (502, 1.59901157021522521973e-01) (503, -1.69506892561912536621e-01) (504, 3.81671279668807983398e-01) (505, -1.87122952938079833984e+00) (506, -3.04144561290740966797e-01) (507, -2.83229380846023559570e-01) (508, 5.11808395385742187500e-01) (509, 1.19196072220802307129e-01) (510, 7.47548282146453857422e-01) (511, -8.13148081302642822266e-01) (512, -4.01291221380233764648e-01) (513, -4.29370450973510742188e+00) (514, 4.68569844961166381836e-02) (515, -9.16535019874572753906e-01) (516, 5.97383677959442138672e-01) (517, 2.96782761812210083008e-01) (518, 6.77640438079833984375e+00) (519, 3.89435172080993652344e-01) (520, 1.89222836494445800781e+00) (521, 5.88501431047916412354e-02) (522, 1.00985264778137207031e+00) (523, 1.18542838096618652344e+00) (524, -2.71114170551300048828e-01) (525, 2.10840508341789245605e-01) (526, -1.07278645038604736328e+00) (527, 3.30056160688400268555e-01) (528, 1.41111421585083007812e+00) (529, 2.16298532485961914062e+00) (530, 3.51883077621459960938e+00) (531, 1.96742340922355651855e-01) (532, 1.13087929785251617432e-01) (533, 1.61859834194183349609e+00) (534, 1.19288003444671630859e+00) (535, 9.59424316883087158203e-01) (536, -4.25622314214706420898e-02) (537, -1.22608914971351623535e-01) (538, 2.71955221891403198242e-01) (539, 6.45981729030609130859e-01) (540, -3.07711064815521240234e-01) (541, 5.26556253433227539062e-01) (542, 1.26833111047744750977e-01) (543, -2.49443486332893371582e-01) (544, -4.37081838026642799377e-03) (545, 1.68386369943618774414e-01) (546, 1.26456499099731445312e+00) (547, 2.44485124945640563965e-01) (548, 9.24999862909317016602e-02) (549, -2.59073525667190551758e-02) (550, -1.07596862316131591797e+00) (551, 5.21195983886718750000e+00) (552, -3.61310899257659912109e-01) (553, -4.37778234481811523438e-01) (554, 1.53947845101356506348e-01) (555, 4.30768392980098724365e-02) (556, -5.55576756596565246582e-02) (557, -7.04893693327903747559e-02) (558, 6.88066706061363220215e-02) (559, 1.33774399757385253906e-01) (560, -1.76106244325637817383e-01) (561, 4.58205975592136383057e-02) (562, 5.78983984887599945068e-02) (563, -7.96992182731628417969e-02) (564, -5.72044402360916137695e-02) (565, 2.96414971351623535156e-01) (566, 1.59950241446495056152e-01) (567, -2.39162985235452651978e-02) (568, 7.21221715211868286133e-02) (569, -1.34360074996948242188e-01) (570, 7.29310214519500732422e-02) (571, 2.33515769243240356445e-01) (572, -6.88944477587938308716e-03) (573, -1.03678651154041290283e-01) (574, 1.06790743768215179443e-01) (575, 4.74863834679126739502e-02) (576, -4.52211046218872070312e+00) (577, 4.04357820749282836914e-01) (578, 2.00316458940505981445e-01) (579, 1.57669052481651306152e-01) (580, -4.99224215745925903320e-02) (581, -4.05044015496969223022e-03) (582, 8.28011110424995422363e-02) (583, 1.15988507866859436035e-01) (584, -1.91599383950233459473e-01) (585, -1.08658827841281890869e-01) (586, -8.22012498974800109863e-02) (587, 1.13011207431554794312e-02) (588, -1.37753939628601074219e+00) (589, -1.36229276657104492188e+00) (590, -4.90468919277191162109e-01) (591, -5.91995954513549804688e-01) (592, 4.81353364884853363037e-02) (593, 7.49108344316482543945e-02) (594, -1.60568463802337646484e+00) (595, -1.51159241795539855957e-01) (596, -2.80264163017272949219e+00) (597, -7.42414379119873046875e+00) (598, 2.31053993105888366699e-01) (599, 1.40985801815986633301e-01) (600, -5.12148551642894744873e-02) (601, 8.90093445777893066406e-02) (602, 1.74811445176601409912e-02) (603, 5.23933880031108856201e-02) (604, -1.65869876742362976074e-01) (605, -1.12445402145385742188e+00) (606, -3.50773669779300689697e-02) (607, -6.64575072005391120911e-03) (608, -4.00835089385509490967e-02) (609, -9.50481742620468139648e-02) (610, 1.05029113590717315674e-01) (611, 1.95212841033935546875e-01) (612, -2.58231967687606811523e-01) (0, -4.15067970752716064453e-01) (1, 1.04950234293937683105e-01) (2, -1.14034019410610198975e-01) (3, 2.02248573303222656250e-01) (4, 2.89022438228130340576e-02) (5, 2.07079470157623291016e-01) (6, -5.00311613082885742188e-01) (7, 3.50265838205814361572e-02) (8, 5.86684755980968475342e-02) (9, -1.07141710817813873291e-01) (10, 1.00309314727783203125e+01) (11, 4.69100952148437500000e-01) (12, -3.23551034927368164062e+00) (13, -1.16373097896575927734e+00) (14, 1.88156902790069580078e+00) (15, 4.53030392527580261230e-02) (16, -8.55158269405364990234e-01) (17, -1.66988596320152282715e-01) (18, 4.81605418026447296143e-02) (19, 2.48035475611686706543e-01) (20, -5.18252607434988021851e-03) (21, -7.15416818857192993164e-02) (22, -2.35490751266479492188e+00) (23, -3.28194834291934967041e-02) (24, 7.45337232947349548340e-02) (25, 4.95341196656227111816e-02) (26, 3.20487804710865020752e-02) (27, -8.76074433326721191406e-02) (28, 9.29254591464996337891e-02) (29, 5.38147211074829101562e-01) (30, 1.39728635549545288086e-01) (31, 2.39726349711418151855e-01) (32, 9.18730050325393676758e-02) (33, 2.32435345649719238281e+00) (34, 9.11909714341163635254e-02) (35, 2.65252560377120971680e-01) (36, -5.98159953951835632324e-02) (37, -3.84638732910156250000e+02) (38, -1.09145224094390869141e-01) (39, -6.69684505462646484375e+00) (40, -9.33933630585670471191e-02) (41, -4.25224661827087402344e-01) (42, -3.88584285974502563477e-02) (43, -1.70565485954284667969e-01) (44, -3.55294466018676757812e-01) (45, -7.36908316612243652344e-01) (46, 1.60955715179443359375e+00) (47, 2.13030600547790527344e+00) (48, 6.48327767848968505859e-01) (49, 5.80967760086059570312e+00) (50, 4.10699397325515747070e-02) (51, -2.05448150634765625000e-01) (52, 8.29069495201110839844e-01) (53, 8.95436823368072509766e-01) (54, -4.10951934754848480225e-02) (55, 1.77005505561828613281e+00) (56, -6.96702748537063598633e-02) (57, 2.42203116416931152344e-01) (58, -4.15398553013801574707e-03) (59, -2.78628349304199218750e+00) (60, 3.63927893340587615967e-02) (61, 2.51513570547103881836e-01) (62, -1.54168745502829551697e-02) (63, 1.86373949050903320312e+00) (64, 7.27387607097625732422e-01) (65, 3.33005046844482421875e+00) (66, -4.22573089599609375000e-01) (67, 5.07028877735137939453e-01) (68, -3.71083545684814453125e+00) (69, 3.39524936676025390625e+00) (70, -7.40250730514526367188e+00) (71, 1.37297242879867553711e-01) (72, 9.12318155169486999512e-02) (73, 9.88597929477691650391e-01) (74, 4.82677459716796875000e-01) (75, 3.78047537803649902344e+00) (76, -1.97508609294891357422e+00) (77, 6.62765145301818847656e-01) (78, -2.86373138427734375000e-01) (79, 7.10371017456054687500e-01) (80, -1.65321385860443115234e+00) (81, 2.91043102741241455078e-01) (82, 3.57992231845855712891e-01) (83, 1.46808874607086181641e+00) (84, 1.11509367823600769043e-01) (85, 2.35184863209724426270e-01) (86, -2.33898997306823730469e+00) (87, -3.19420069456100463867e-01) (88, 1.17395676672458648682e-01) (89, 1.96557328104972839355e-01) (90, 3.03890317678451538086e-01) (91, 1.14708387851715087891e+00) (92, -8.61769866943359375000e+00) (93, 4.39847439527511596680e-01) (94, -4.03513097763061523438e+00) (95, 1.07948839664459228516e-01) (96, -4.51083220541477203369e-02) (97, -2.71983957290649414062e+00) (98, 6.33836669921875000000e+01) (99, 2.13685455322265625000e+01) (100, 1.53345751762390136719e+00) (101, 1.88295751810073852539e-01) (102, 1.63711404800415039062e+00) (103, 8.63157033920288085938e-01) (104, 2.71620303392410278320e-01) (105, 2.43860036134719848633e-01) (106, 2.96742367744445800781e+00) (107, 6.07851552963256835938e+00) (108, 5.55428504943847656250e-01) (109, 6.09651565551757812500e+01) (110, 4.33376997709274291992e-01) (111, 1.60878610610961914062e+00) (112, -2.75526142120361328125e+00) (113, -4.97339159250259399414e-01) (114, 5.09855926036834716797e-01) (115, 7.93973565101623535156e-01) (116, 5.95033824443817138672e-01) (117, 8.81271421909332275391e-01) (118, 7.33417212963104248047e-01) (119, 7.81310558319091796875e-01) (120, 1.03063392639160156250e+00) (121, 1.07594633102416992188e+00) (122, -1.60465455055236816406e+00) (123, -1.71303520202636718750e+01) (124, 1.31691849231719970703e+00) (125, 8.06351542472839355469e-01) (126, 6.97881340980529785156e-01) (127, 7.88248956203460693359e-01) (128, 9.84048247337341308594e-01) (129, 7.07032966613769531250e+00) (130, 3.13060283660888671875e-01) (131, 7.37956345081329345703e-01) (132, 2.23068550229072570801e-01) (133, 2.92367339134216308594e-01) (134, 3.14317077398300170898e-01) (135, 2.56526231765747070312e-01) (136, 3.40142488479614257812e-01) (137, 2.59181976318359375000e-01) (138, 4.18774783611297607422e-02) (139, 2.70385947078466415405e-02) (140, 3.20007443428039550781e+00) (141, 6.15633428096771240234e-01) (142, 2.99947589635848999023e-01) (143, 1.26035481691360473633e-01) (144, -1.20433330535888671875e+00) (145, -8.14143955707550048828e-01) (146, -2.96407699584960937500e-01) (147, -3.66650819778442382812e-01) (148, 9.37160686589777469635e-04) (149, 8.24668705463409423828e-02) (150, 2.13605329394340515137e-01) (151, -1.77010014653205871582e-01) (152, 1.50490075349807739258e-01) (153, -1.82473048567771911621e-01) (154, 4.16237801313400268555e-01) (155, -2.49353468418121337891e-01) (156, -9.41303074359893798828e-02) (157, 9.00542289018630981445e-02) (158, 2.68112540245056152344e-01) (159, 1.34680092334747314453e-01) (160, -4.68751132488250732422e-01) (161, -2.51761603355407714844e+00) (162, 1.08356662094593048096e-01) (163, 2.71768331527709960938e-01) (164, -1.67907655239105224609e-01) (165, -1.37753486633300781250e-01) (166, 1.14625118672847747803e-01) (167, -8.44501912593841552734e-01) (168, -4.57841902971267700195e-01) (169, -2.28583574295043945312e-01) (170, -6.22476823627948760986e-02) (171, -1.34582072496414184570e-01) (172, -2.36994519829750061035e-01) (173, -4.76300388574600219727e-01) (174, -3.58933478593826293945e-01) (175, -7.65886962413787841797e-01) (176, -2.06982120871543884277e-01) (177, -7.98359662294387817383e-02) (178, -2.30479285120964050293e-01) (179, -5.10974526405334472656e-01) (180, 2.23820656538009643555e-02) (181, -1.23292014002799987793e-01) (182, 4.99885112047195434570e-01) (183, -9.48696956038475036621e-02) (184, -1.88966151326894760132e-02) (185, 1.65724396705627441406e-01) (186, -4.01801288127899169922e-01) (187, -5.21738409996032714844e-01) (188, 6.98961675167083740234e-01) (189, -6.84023082256317138672e-01) (190, 1.25879004597663879395e-01) (191, 2.08028540015220642090e-01) (192, -3.24778556823730468750e-01) (193, -2.82743901014328002930e-01) (194, -3.24152261018753051758e-01) (195, -3.21305572986602783203e-01) (196, 1.66944770812988281250e+01) (197, 3.16031208038330078125e+01) (198, 6.95204362273216247559e-02) (199, 1.17167748510837554932e-01) (200, -1.01983571052551269531e+00) (201, -5.21289253234863281250e+00) (202, -6.50000000000000000000e+02) (203, -9.00000000000000000000e+02) (204, -4.54273313283920288086e-01) (205, 1.63225814700126647949e-01) (206, -2.45869398117065429688e+00) (207, -9.90398466587066650391e-01) (208, 5.98827552795410156250e+00) (209, -4.08578987121582031250e+01) (210, 1.32590126991271972656e+00) (211, 1.54282823204994201660e-01) (212, -6.93356933593750000000e+01) (213, -1.49565303325653076172e+00) (214, -1.16340303421020507812e+01) (215, 1.70668673515319824219e+00) (216, -9.61104583740234375000e+00) (217, -4.55523061752319335938e+00) (218, -6.02349340915679931641e-01) (219, -6.86738491058349609375e-01) (220, 1.01865015923976898193e-01) (221, 2.70221382379531860352e-01) (222, -7.86629533767700195312e+00) (223, -6.53222680091857910156e-01) (224, 1.83188289403915405273e-01) (225, -3.70346283912658691406e+00) (226, -6.28015708923339843750e+00) (227, -3.97876560688018798828e-01) (228, -5.95003747940063476562e+00) (229, -8.35069358348846435547e-01) (230, 1.17378540337085723877e-01) (231, 2.51991331577301025391e-01) (232, 7.08267986774444580078e-02) (233, -1.33053250610828399658e-02) (234, 1.19584298133850097656e+00) (235, -9.39759135246276855469e-01) (236, 1.32155999541282653809e-01) (237, 1.13116241991519927979e-01) (238, -1.09148180484771728516e+00) (239, -3.94902527332305908203e-01) (240, -3.89895558357238769531e-01) (241, -2.65571922063827514648e-01) (242, -4.08142894506454467773e-01) (243, -3.98597508668899536133e-01) (244, -5.16428451538085937500e+01) (245, -3.88535499572753906250e-01) (246, -7.31487560272216796875e+00) (247, -1.76639616489410400391e-01) (248, -6.02932810783386230469e-01) (249, -3.56875360012054443359e-01) (250, 2.53494052886962890625e+01) (251, 1.12033188343048095703e+00) (252, -2.05774669647216796875e+01) (253, 1.26805573701858520508e-01) (254, -7.97907447814941406250e+00) (255, -1.94803759455680847168e-01) (256, 2.17086524963378906250e+01) (257, 7.01987266540527343750e-01) (258, 4.30972051620483398438e+00) (259, 4.47921790182590484619e-02) (260, 2.81904387474060058594e+00) (261, -1.54977440834045410156e-01) (262, 6.80244803428649902344e-01) (263, 2.30956077575683593750e-01) (264, -3.55272483825683593750e+00) (265, 8.21307599544525146484e-02) (266, -5.33119249343872070312e+00) (267, 3.10628525912761688232e-02) (268, 6.72430992126464843750e-01) (269, 1.12867616117000579834e-01) (270, 1.45223999023437500000e+03) (271, -4.08819109201431274414e-01) (272, 1.50000000000000000000e+03) (273, 4.48739141225814819336e-01) (274, -1.68003101348876953125e+01) (275, -1.71040818095207214355e-02) (276, 8.24831466674804687500e+01) (277, 1.24742165207862854004e-02) (278, 1.50000000000000000000e+03) (279, 3.25782567262649536133e-01) (280, 7.51731185913085937500e+01) (281, 3.39650288224220275879e-02) (282, 1.47929644584655761719e+00) (283, 2.72509396076202392578e-01) (284, -2.10420560836791992188e+00) (285, -2.93407104909420013428e-02) (286, 5.90604675292968750000e+02) (287, 1.08025002479553222656e+00) (288, 4.81153756380081176758e-01) (289, 1.25684201717376708984e-01) (290, -1.38082933425903320312e+01) (291, -5.57934522628784179688e-01) (292, -6.31491601467132568359e-01) (293, 1.33065983653068542480e-01) (294, -5.32708823680877685547e-01) (295, -1.17506965994834899902e-01) (296, -6.13415479660034179688e+00) (297, -1.98383200168609619141e+00) (298, -1.70439605712890625000e+01) (299, -3.88358354568481445312e-01) (300, -8.85188007354736328125e+00) (301, 1.29444539546966552734e-01) (302, 1.41957153320312500000e+03) (303, 1.45305907726287841797e+00) (304, 1.28269180297851562500e+02) (305, 3.93230706453323364258e-01) (306, 3.22516365051269531250e+01) (307, 1.33855748176574707031e+00) (308, 6.87474533915519714355e-02) (309, 6.30652189254760742188e-01) (310, 2.40612380981445312500e+02) (311, 3.94888448715209960938e+00) (312, -1.70818626880645751953e+00) (313, 7.58001387119293212891e-01) (314, 5.31516599655151367188e+00) (315, 3.64237278699874877930e-01) (316, 6.18396568298339843750e+00) (317, 2.66783922910690307617e-01) (318, 4.42134735107421875000e+02) (319, -8.30489397048950195312e-01) (320, 9.04053151607513427734e-01) (321, 2.71882474422454833984e-01) (322, 1.03101547241210937500e+02) (323, 8.28121602535247802734e-02) (324, 7.97115683555603027344e-01) (325, 9.88769829273223876953e-01) (326, -7.69306802749633789062e+00) (327, -1.65844643115997314453e+00) (328, 1.50000000000000000000e+03) (329, 3.38366150856018066406e+00) (330, 5.31700909137725830078e-01) (331, -1.90941631793975830078e+00) (332, 6.07931375503540039062e+00) (333, 1.51863088607788085938e+01) (334, 1.23338718414306640625e+01) (335, 6.22438001632690429688e+00) (336, -1.36841580271720886230e-01) (337, -3.41907382011413574219e+00) (338, 5.80620393157005310059e-02) (339, -5.76647296547889709473e-02) (340, 1.46341234445571899414e-01) (341, 3.01893919706344604492e-01) (342, 3.82155440747737884521e-02) (343, -4.42746371030807495117e-01) (344, 6.99980556964874267578e-01) (345, 3.83292824029922485352e-01) (346, -1.07307732105255126953e+00) (347, -3.76493066549301147461e-01) (348, 1.57301938533782958984e+00) (349, 4.18127685785293579102e-01) (350, 1.01508169174194335938e+01) (351, -6.94603502750396728516e-01) (352, 2.51137971878051757812e+00) (353, 6.83059632778167724609e-01) (354, 1.09101495742797851562e+01) (355, -1.72668056488037109375e+01) (356, 3.76021265983581542969e+00) (357, -8.21171581745147705078e-01) (358, 3.32640379667282104492e-01) (359, 1.42672181129455566406e-01) (360, 1.46725022792816162109e+00) (361, 8.67027282714843750000e+00) (362, 1.69957852363586425781e+00) (363, -1.23891103267669677734e+00) (364, 2.89133787155151367188e+00) (365, 1.01311242580413818359e+00) (366, -5.56197690963745117188e+00) (367, -1.30266904830932617188e+00) (368, -9.58410739898681640625e+00) (369, -2.92659997940063476562e+00) (370, -5.64719915390014648438e-01) (371, -3.86222839355468750000e+00) (372, -1.65824723243713378906e+00) (373, -3.04613918066024780273e-01) (374, -3.95177345275878906250e+01) (375, -2.08637275695800781250e+01) (376, -7.42574071884155273438e+00) (377, -5.55222809314727783203e-01) (378, -1.75843644142150878906e+00) (379, -1.10376667976379394531e+00) (380, 6.34699201583862304688e+00) (381, 3.73322963714599609375e-01) (382, -1.42848815917968750000e+01) (383, 2.79240757226943969727e-01) (384, 2.11154651641845703125e+01) (385, 8.91888499259948730469e-01) (386, -2.84559202194213867188e+00) (387, 2.53736543655395507812e+00) (388, -8.31648647785186767578e-01) (389, -8.54949235916137695312e-01) (390, -1.03724169731140136719e+00) (391, -1.18559303283691406250e+01) (392, 3.25486588478088378906e+00) (393, -1.54206943511962890625e+01) (394, -1.36056876182556152344e+00) (395, -2.38362255096435546875e+01) (396, 1.08325302600860595703e-01) (397, 